tree
version=v4
num_class=1
num_tree_per_iteration=1
label_index=0
max_feature_idx=174
objective=regression
feature_names=ID magnifying_power install_capacity atmospheric_pressure_Pa rela_moisture_percent cloud_cover wind_speed_10m/s wind_dir_10m_degree temperature_K irradiation_intensity_J/m2 rainfall_m wind_speed_100m/s wind_dir_100m_degree wind_dir_10m_degree_diff1 wind_dir_100m_degree_diff1 wind_dir_10m_degree_diff1_abs wind_dir_100m_degree_diff1_abs week day dayofweek dayofyear hour_minute 6hour 12hour is_day sin_hour sin_hour_rad cos_hour_rad sin_hour_minute sin_hour_minute_rad cos_hour_minute_rad atmospheric_pressure_Pa_gby_is_day_min rela_moisture_percent_gby_is_day_min cloud_cover_gby_is_day_min wind_speed_10m/s_gby_is_day_min wind_dir_10m_degree_gby_is_day_min temperature_K_gby_is_day_min irradiation_intensity_J/m2_gby_is_day_min rainfall_m_gby_is_day_min wind_speed_100m/s_gby_is_day_min wind_dir_100m_degree_gby_is_day_min wind_dir_10m_degree_diff1_gby_is_day_min wind_dir_100m_degree_diff1_gby_is_day_min atmospheric_pressure_Pa_gby_is_day_max rela_moisture_percent_gby_is_day_max cloud_cover_gby_is_day_max wind_speed_10m/s_gby_is_day_max wind_dir_10m_degree_gby_is_day_max temperature_K_gby_is_day_max irradiation_intensity_J/m2_gby_is_day_max rainfall_m_gby_is_day_max wind_speed_100m/s_gby_is_day_max wind_dir_100m_degree_gby_is_day_max wind_dir_10m_degree_diff1_gby_is_day_max wind_dir_100m_degree_diff1_gby_is_day_max atmospheric_pressure_Pa_gby_is_day_mean rela_moisture_percent_gby_is_day_mean cloud_cover_gby_is_day_mean wind_speed_10m/s_gby_is_day_mean wind_dir_10m_degree_gby_is_day_mean temperature_K_gby_is_day_mean irradiation_intensity_J/m2_gby_is_day_mean rainfall_m_gby_is_day_mean wind_speed_100m/s_gby_is_day_mean wind_dir_100m_degree_gby_is_day_mean wind_dir_10m_degree_diff1_gby_is_day_mean wind_dir_100m_degree_diff1_gby_is_day_mean atmospheric_pressure_Pa_gby_is_day_std rela_moisture_percent_gby_is_day_std cloud_cover_gby_is_day_std wind_speed_10m/s_gby_is_day_std wind_dir_10m_degree_gby_is_day_std temperature_K_gby_is_day_std irradiation_intensity_J/m2_gby_is_day_std rainfall_m_gby_is_day_std wind_speed_100m/s_gby_is_day_std wind_dir_100m_degree_gby_is_day_std wind_dir_10m_degree_diff1_gby_is_day_std wind_dir_100m_degree_diff1_gby_is_day_std atmospheric_pressure_Pa_gby_is_day_kurt rela_moisture_percent_gby_is_day_kurt cloud_cover_gby_is_day_kurt wind_speed_10m/s_gby_is_day_kurt wind_dir_10m_degree_gby_is_day_kurt temperature_K_gby_is_day_kurt irradiation_intensity_J/m2_gby_is_day_kurt rainfall_m_gby_is_day_kurt wind_speed_100m/s_gby_is_day_kurt wind_dir_100m_degree_gby_is_day_kurt wind_dir_10m_degree_diff1_gby_is_day_kurt wind_dir_100m_degree_diff1_gby_is_day_kurt atmospheric_pressure_Pa_gby_is_day_skew rela_moisture_percent_gby_is_day_skew cloud_cover_gby_is_day_skew wind_speed_10m/s_gby_is_day_skew wind_dir_10m_degree_gby_is_day_skew temperature_K_gby_is_day_skew irradiation_intensity_J/m2_gby_is_day_skew rainfall_m_gby_is_day_skew wind_speed_100m/s_gby_is_day_skew wind_dir_100m_degree_gby_is_day_skew wind_dir_10m_degree_diff1_gby_is_day_skew wind_dir_100m_degree_diff1_gby_is_day_skew atmospheric_pressure_Pa_gby_hour_min rela_moisture_percent_gby_hour_min cloud_cover_gby_hour_min wind_speed_10m/s_gby_hour_min wind_dir_10m_degree_gby_hour_min temperature_K_gby_hour_min irradiation_intensity_J/m2_gby_hour_min rainfall_m_gby_hour_min wind_speed_100m/s_gby_hour_min wind_dir_100m_degree_gby_hour_min wind_dir_10m_degree_diff1_gby_hour_min wind_dir_100m_degree_diff1_gby_hour_min atmospheric_pressure_Pa_gby_hour_max rela_moisture_percent_gby_hour_max cloud_cover_gby_hour_max wind_speed_10m/s_gby_hour_max wind_dir_10m_degree_gby_hour_max temperature_K_gby_hour_max irradiation_intensity_J/m2_gby_hour_max rainfall_m_gby_hour_max wind_speed_100m/s_gby_hour_max wind_dir_100m_degree_gby_hour_max wind_dir_10m_degree_diff1_gby_hour_max wind_dir_100m_degree_diff1_gby_hour_max atmospheric_pressure_Pa_gby_hour_mean rela_moisture_percent_gby_hour_mean cloud_cover_gby_hour_mean wind_speed_10m/s_gby_hour_mean wind_dir_10m_degree_gby_hour_mean temperature_K_gby_hour_mean irradiation_intensity_J/m2_gby_hour_mean rainfall_m_gby_hour_mean wind_speed_100m/s_gby_hour_mean wind_dir_100m_degree_gby_hour_mean wind_dir_10m_degree_diff1_gby_hour_mean wind_dir_100m_degree_diff1_gby_hour_mean atmospheric_pressure_Pa_gby_hour_std rela_moisture_percent_gby_hour_std cloud_cover_gby_hour_std wind_speed_10m/s_gby_hour_std wind_dir_10m_degree_gby_hour_std temperature_K_gby_hour_std irradiation_intensity_J/m2_gby_hour_std rainfall_m_gby_hour_std wind_speed_100m/s_gby_hour_std wind_dir_100m_degree_gby_hour_std wind_dir_10m_degree_diff1_gby_hour_std wind_dir_100m_degree_diff1_gby_hour_std atmospheric_pressure_Pa_gby_hour_kurt rela_moisture_percent_gby_hour_kurt cloud_cover_gby_hour_kurt wind_speed_10m/s_gby_hour_kurt wind_dir_10m_degree_gby_hour_kurt temperature_K_gby_hour_kurt irradiation_intensity_J/m2_gby_hour_kurt rainfall_m_gby_hour_kurt wind_speed_100m/s_gby_hour_kurt wind_dir_100m_degree_gby_hour_kurt wind_dir_10m_degree_diff1_gby_hour_kurt wind_dir_100m_degree_diff1_gby_hour_kurt atmospheric_pressure_Pa_gby_hour_skew rela_moisture_percent_gby_hour_skew cloud_cover_gby_hour_skew wind_speed_10m/s_gby_hour_skew wind_dir_10m_degree_gby_hour_skew temperature_K_gby_hour_skew irradiation_intensity_J/m2_gby_hour_skew rainfall_m_gby_hour_skew wind_speed_100m/s_gby_hour_skew wind_dir_100m_degree_gby_hour_skew wind_dir_10m_degree_diff1_gby_hour_skew wind_dir_100m_degree_diff1_gby_hour_skew
feature_infos=[1:9] [80:8000] [201.13999999999999:6000] [93293.2109375:102967.296875] [0:105.85359954833984] [0:1] [0:9.823699951171875] [180:270] [268.53829956054688:314.42660522460938] [0:1010.5169067382812] [0:0.24200999736785889] [0:13.959799766540527] [180:270] [-90:90] [-90:90] [0:90] [0:90] [1:52] [1:31] [1:7] [1:365] [0:23.75] [0:3] [0:1] [0:1] [-0.26179683208465576:0.25934040546417236] [-1:1] [-1:1] [-0.26179683208465576:0.26114359498023987] [-1:1] [-1:1] [93293.2109375:102637.265625] [0:99.882896423339844] [0:1] [0:5.5357999801635742] [180:270] [268.53829956054688:301.35281372070312] none [0:0.18880000710487366] [0:8.6070003509521484] [180:270] [-90:0] [-90:0] [93559.3359375:102967.296875] [1.4407999515533447:105.85359954833984] [1.5200000034623825e-18:1] [0:10.005999565124512] [180:270] [275.21148681640625:314.42660522460938] [0:1010.5169067382812] [0:0.24200999736785889] [0:13.959799766540527] [180:270] [0:90] [0:90] [93446.4453125:102728.6796875] [0.5962289571762085:100.51522064208984] [8.9320377797805218e-20:1] [0:8.074284553527832] [180:270] [271.75930786132812:309.51828002929688] [0:640.366455078125] [0:0.2166777104139328] [0:11.143155097961426] [180:270] [-3.75:3.75] [-3.75:3.75] [19.208866119384766:414.93344116210938] [0.13551841676235199:49.660343170166016] [0:0.5052834153175354] [0:3.0722763538360596] [0:45.476203918457031] [0.10564550757408142:6.8102760314941406] [0:350.55252075195312] [0:0.04919099435210228] [0:4.8724722862243652] [0:45.476203918457031] [0:37.2060546875] [0:36.227718353271484] [-1.9623111486434937:3.0967841148376465] [-1.999656081199646:18.108766555786133] [-2:43.021278381347656] [-1.9809672832489014:43.021278381347656] [-2:43.021278381347656] [-1.9960933923721313:10.137153625488281] [-1.6883381605148315:43.021278381347656] [-2:43.021278381347656] [-1.9971127510070801:43.021278381347656] [-2:43.021278381347656] [-1.7643780708312988:91.010528564453125] [-1.701897144317627:91.010528564453125] [-1.9282419681549072:1.4822911024093628] [-4.256197452545166:4.116854190826416] [-6.7097897529602051:6.3104534149169922] [-2.7358124256134033:6.7097897529602051] [-6.7097897529602051:6.7097897529602051] [-2.581057071685791:2.9892380237579346] [-1.3808524608612061:6.7097897529602051] [-6.0613155364990234:6.7097897529602051] [-2.231050968170166:6.7097897529602051] [-6.7097897529602051:6.7097897529602051] [-9.6441965103149414:9.6441965103149414] [-9.6441965103149414:9.6441965103149414] [93293.2109375:102954.03125] [0:102.02390289306641] [0:1] [0:9.6836996078491211] [180:270] [268.53829956054688:313.752197265625] [0:1002.5955810546875] [0:0.22429999709129333] [0:13.499099731445312] [180:270] [-90:18.736799240112305] [-90:15.43690013885498] [93312.71875:102967.296875] [0:105.85359954833984] [0:1] [0:10.005999565124512] [180:270] [268.83560180664062:314.42660522460938] [0:1010.5169067382812] [0:0.24200999736785889] [0:13.959799766540527] [180:270] [-16.947500228881836:90] [-16.579399108886719:90] [93301.8359375:102960.09375] [0:104.17837524414062] [0:1] [0:9.8933496475219727] [180:270] [268.691162109375:314.13116455078125] [0:1007.3883666992188] [0:0.23536750674247742] [0:13.645024299621582] [180:270] [-22.500001907348633:22.500001907348633] [-22.5:22.500001907348633] [0.078255102038383484:152.01054382324219] [0:20.420108795166016] [0:0.36626154184341431] [0:2.0337176322937012] [0:51.961524963378906] [0.00048083346337080002:2.7881302833557129] [0:231.74143981933594] [0:0.060134157538414001] [0:2.9743313789367676] [0:51.961524963378906] [0:76.249153137207031] [0:74.248619079589844] [-1.9998667240142822:-0.66676867008209229] [-1.9992995262145996:0] [-2:0] [-1.9999358654022217:0] [-2:0] [-2:-0.66719222068786621] [-1.999375581741333:0] [-2:0] [-1.9999996423721313:0] [-2:0] [-2:3.1428570747375488] [-1.9999815225601196:3.1428570747375488] [-1.1532597541809082:1.1545679569244385] [-1.1545968055725098:1.1547005176544189] [-1.1547005176544189:1.1547005176544189] [-1.1515532732009888:1.1547005176544189] [-1.1547005176544189:1.1547005176544189] [-1.1540234088897705:1.1532686948776245] [-1.1495785713195801:1.1547005176544189] [-1.1547005176544189:1.1547005176544189] [-1.1546361446380615:1.1547005176544189] [-1.1547005176544189:1.1547005176544189] [-2.2677867412567139:2.2677867412567139] [-2.2677867412567139:2.2677867412567139]
tree_sizes=5780 6160 6098 6130 6128 6152 6144 6143 6124 6151 6139 6145 6120 6117 6146 6163 6062 6157 6138 5780 6125 6136 6134 5855 5889 6145 6173 6182 5963 5909 6053 5925 6200 6172 6145 5877 6155 6155 6159 6169 6137 6183 6180 5986 6169 6173 6172 6146 6191 6145 6143 6146 6161 6185 6180 6069 6165 5987 6176 6162 6163 6162 6189 6180 6162 6175 6190 6098 6126 6162 5921 6101 6178 6158 6172 6207 6151 6185 6088 6156 6228 6179 6228 6175 6237 6209 6242 6204 6181 6182 6205 6229 6207 6169 6178 5911 6168 6189 6185 6093 6196 6191 5983 6236 6183 6159 6184 6182 6162 6090 6175 6171 6186 6145 6235 6204 6208 6156 6181 6206 6161 6211 6034 6199 6171 6079 6065 6164 5862 6211 6186 6180 6074 6183 6203 6180 6189 6222 6208 5879 5971 5937 6083 6160 6190 6132 6191 6036 6070 5879 6220 6115 6166 6185 5759 6139 5927 6118 6009 6183 6141 5978 6054 6094 6138 5844 6009 5932 6068 6159 6111 6086 6045 6053 6132 6050 6195 5975 6068 6147 6077 6034 6180 6104 6000 6071 6083 5964 5944 6023 6079 6160 6078 5968 6137 6175 6128 5805 5981 6137 5878 6062 5896 6173 6186 5855 5924 6052 6129 5904 5863 5980 6126 6146 5906 6180 6131 6129 5918 6102 6101 5840 5905 6021 6168 6024 5976 5982 6098 6082 6035 5863 5793 6159 6066 6039 5946 6048 5637 5960 5439 6010 6041 6019 5724 6052 6105 6036 6158 5644 5747 6069 6134 6124 5669 6004 5527 6141 5952 5780 6108 5652 6138 5377 5742 5957 6027 6060 5823 6098 5932 5324 5958 5940 6053 5662 5039 5507 5247 5724 5283 5416 5338 5367 6017 5272 5915 5435 5778 5283 5712 5713 5743 6019 5346 6072 5752 5809 5744 5442 5714 5548 5195 5782 5187 5537 5072 6081 5925 5634 5433 5854 5358 5664 5827 5439 5780 6007 5810 5330 5637 5018 5146 4813 5623 5552 5673 5668 5252 5552 5653 5536 5969 5614 5584 5991 5618 5746 5479 5780 5748 5470 5454 5635 5678 5536 5941 5466 5593 5751 5834 5443 5424 5811 5712 5655 5621 5922 5979 5687 5412 5704 5640 5763 5579 5667 5711 5861 5636 5910 5526 5105 5867 5447 5548 5308 5777 5245 5896 5351 5428 5410 5857 5701 5216 5794 5695 5890

Tree=0
num_leaves=64
num_cat=0
split_feature=9 1 9 21 61 1 21 73 61 31 21 9 30 9 103 31 72 9 61 9 21 103 31 1 0 30 61 49 127 21 61 9 0 21 9 9 73 94 1 73 21 28 9 9 61 60 72 9 0 9 73 73 57 61 49 18 9 29 21 110 61 29 129
split_gain=34847.7 13460.3 3397.17 2854.62 2609.78 1030.68 1150.4 727.475 390.838 390.15 336.616 262.327 257.722 231.469 221.459 187.679 150.714 137.528 131.053 116.783 92.7925 70.9721 58.7157 55.5122 49.3984 48.8115 44.8027 36.4802 33.2615 31.8318 30.2029 28.2174 25.4678 24.3699 13.1117 12.9266 12.4327 11.0824 7.43376 5.14545 4.70821 3.55028 3.28996 3.27864 2.79099 2.6552 2.05374 2.00449 1.96181 1.86397 1.77778 1.66627 1.52089 1.21927 1.20908 1.11555 0.944627 1.29165 0.929663 0.928453 0.84227 0.448894 0.2104
threshold=347.48243713378912 1560.0000000000002 85.234298706054702 14.375000000000002 337.20379638671881 1560.0000000000002 14.625000000000002 279.24436950683599 218.0195007324219 95101.796875000015 15.375000000000002 610.56576538085949 -0.19509041309356687 192.08414459228518 95426.078125000015 95306.941406250015 3.0624850988388066 501.19255065917974 229.20487213134768 651.25125122070324 16.375000000000004 95514.621093750015 95399.781250000015 1560.0000000000002 1.5000000000000002 -0.65934577584266651 337.20379638671881 720.41290283203136 95762.210937500015 14.875000000000002 453.95190429687506 230.38155364990237 1.5000000000000002 11.875000000000002 792.54235839843761 519.83740234375011 228.06377410888675 -0.46781362593173975 100.00000000000001 228.06377410888675 11.875000000000002 -1.0000000180025095e-35 233.2194519042969 479.12834167480474 136.79508972167972 297.16931152343756 1.4921630024909975 236.71080017089847 3.5000000000000004 417.46060180664068 228.06377410888675 260.21212768554693 0.98133811354637157 496.54954528808599 580.63333129882824 22.500000000000004 29.595049858093265 -0.77259662747383107 16.375000000000004 0.0024615500587970023 461.68202209472662 0.98611509799957286 0.98374000191688549
decision_type=2 2 2 2 2 2 2 2 2 2 2 2 2 2 2 2 2 2 2 2 2 2 2 2 2 2 2 2 2 2 2 2 2 2 2 2 2 2 2 2 2 2 2 2 2 2 2 2 2 2 2 2 2 2 2 2 2 2 2 2 2 2 2
left_child=2 3 12 4 15 6 8 14 21 -9 11 26 23 -10 -6 16 -2 32 -17 33 28 -4 -13 25 -19 37 -5 -27 -8 39 44 -22 -12 36 40 49 59 -1 41 52 51 -32 -41 -38 61 -46 55 58 -40 -35 -42 -21 -7 -48 -37 -36 60 -58 -31 -3 -25 -14 -49
right_child=1 19 5 10 7 29 20 9 13 -11 17 22 30 -15 -16 18 -18 24 -20 34 31 -23 -24 56 -26 27 -28 -29 -30 47 38 -33 -34 35 46 54 43 -39 48 42 50 -43 -44 -45 45 -47 53 62 -50 -51 -52 -53 -54 -55 -56 -57 57 -59 -60 -61 -62 -63 -64
leaf_value=0.24759328502948477 0.24987802226868613 0.24288540701956768 0.24648184607891782 0.24646611170589791 0.25632779316538001 0.24214472761404651 0.24479919392310009 0.2603614012598765 0.2455860159265788 0.2560664174458856 0.24333149431700518 0.25461369455410332 0.24091117391294634 0.24841612224447196 0.25321587083291686 0.24603969725487176 0.25620735329030275 0.24449855939699888 0.24916666214354391 0.24388185438001256 0.24156968013237681 0.2444725577483301 0.25120474588159619 0.24110655244466753 0.24915640811599443 0.24191481694525446 0.24879360402264114 0.24327787529927886 0.2430835847297827 0.24137941642163799 0.2421812370450927 0.24279914699976185 0.24559615689806319 0.2419858376754305 0.24386955582126202 0.24233865453555009 0.24331383347874627 0.24356269173407402 0.24198273729001826 0.24218802191381722 0.2427218947037604 0.24340407735908567 0.24279686875654488 0.24385259262264677 0.24100585667671889 0.24141475438792837 0.24443457605919447 0.2414563032388328 0.24134368506314635 0.24238872403260628 0.24382346971721164 0.24452896249383918 0.24185519801143102 0.24492817989558968 0.24303399143629636 0.2447154406774861 0.24105636307211376 0.24152855043009472 0.24106129586619662 0.24244125858556631 0.2416612532447181 0.24099423389954763 0.24170927831513006
leaf_weight=70 1024 1233 2086 1315 2781 3332 1426 2680 4847 10163 585 688 164666 7172 13109 1727 598 265 6040 546 6771 11233 1972 2814 1674 11305 2261 2380 5438 1465 731 2585 3221 2013 394 271 1830 2401 759 2198 151 347 1518 2923 8022 2079 652 1689 1466 2842 3563 1617 4347 2757 3785 272 808 2643 3351 797 344 8603 629
leaf_count=70 1024 1233 2086 1315 2781 3332 1426 2680 4847 10163 585 688 164666 7172 13109 1727 598 265 6040 546 6771 11233 1972 2814 1674 11305 2261 2380 5438 1465 731 2585 3221 2013 394 271 1830 2401 759 2198 151 347 1518 2923 8022 2079 652 1689 1466 2842 3563 1617 4347 2757 3785 272 808 2643 3351 797 344 8603 629
internal_value=0.24335 0.249343 0.241666 0.252359 0.253697 0.243762 0.244636 0.255192 0.245968 0.256963 0.2481 0.249709 0.241064 0.247275 0.253761 0.249119 0.252215 0.246353 0.248472 0.243451 0.242557 0.244787 0.252088 0.242069 0.248521 0.242385 0.247939 0.242152 0.24344 0.2418 0.240942 0.241909 0.245248 0.242913 0.244298 0.24257 0.243365 0.243678 0.241891 0.242129 0.243995 0.242577 0.242436 0.243645 0.240925 0.24109 0.244734 0.241276 0.241561 0.242221 0.243778 0.244367 0.241981 0.244834 0.242987 0.244218 0.241297 0.241417 0.241158 0.24271 0.241166 0.240915 0.241524
internal_weight=0 75749 269525 50103 38122 60087 41558 28733 25338 12843 11981 6236 209438 12019 15890 9389 1622 5745 7767 25646 16220 13319 2660 22765 1939 16156 3576 13685 6864 18529 186673 9356 3806 15694 9952 8911 6783 2471 3303 11395 5877 1078 3716 4753 183370 10101 4075 7134 2225 4855 3714 2163 7679 3409 4056 666 6609 3451 4816 2030 3158 173269 2318
internal_count=345274 75749 269525 50103 38122 60087 41558 28733 25338 12843 11981 6236 209438 12019 15890 9389 1622 5745 7767 25646 16220 13319 2660 22765 1939 16156 3576 13685 6864 18529 186673 9356 3806 15694 9952 8911 6783 2471 3303 11395 5877 1078 3716 4753 183370 10101 4075 7134 2225 4855 3714 2163 7679 3409 4056 666 6609 3451 4816 2030 3158 173269 2318
is_linear=0
shrinkage=1


Tree=1
num_leaves=64
num_cat=0
split_feature=121 1 109 30 29 55 31 121 133 9 0 9 73 29 73 44 30 23 97 29 121 48 103 9 46 28 31 29 55 121 55 28 31 97 29 133 73 9 73 9 1 1 36 9 9 23 85 0 1 73 9 51 28 109 73 29 133 30 9 55 128 73 109
split_gain=34231.8 13345.3 4197.28 3463.87 1378.24 574.693 551.062 433.618 405.668 385.958 327.962 301.248 247.408 221.015 226.306 198.632 196.83 192.288 192.177 127.956 121.23 88.2723 75.1496 75.0105 61.2272 58.7239 56.1261 52.9937 41.4523 38.4489 36.4788 35.512 27.2958 23.5645 22.1981 20.9037 14.475 13.044 12.9343 9.26604 8.87446 8.72235 6.95545 6.76714 5.18929 4.65157 4.19352 3.70264 3.45555 2.93364 2.91656 2.64428 2.31299 2.02464 1.84236 1.61315 1.22734 1.1105 0.997559 0.763173 0.67484 0.348492 0.341297
threshold=396.26855468750006 1560.0000000000002 594.68505859375011 -0.3826832622289657 -0.52778503298759449 100220.86328125001 95101.796875000015 566.74661254882824 122.55748367309572 798.64328002929699 5.5000000000000009 479.12834167480474 204.88818359375003 -0.52778503298759449 139.09326171875003 91.921749114990249 -0.13052606582641599 1.0000000180025095e-35 -0.11816485226154326 -0.52778503298759449 653.93411254882824 302.21086120605474 98137.503906250015 151.05369567871097 3.8324500322341923 0.050928704440593726 95517.328125000015 -0.35206140577793116 100038.11328125001 67.916999816894545 95596.695312500015 0.17112183570861819 95306.941406250015 -0.34888108074665064 -0.58216583728790272 709.18981933593761 228.06377410888675 48.701400756835945 253.66501617431643 136.12304687500003 1560.0000000000002 1560.0000000000002 294.00840759277349 460.65756225585943 845.57986450195324 1.0000000180025095e-35 -1.2266095876693723 5.5000000000000009 1560.0000000000002 262.48632812500006 119.68944931030275 2.0636500120162968 -0.082550395280122743 475.22966003417974 260.21212768554693 0.99465191364288341 669.62960815429699 -0.65934577584266651 528.71115112304699 96890.097656250015 73.206676483154311 296.52635192871099 325.34574890136724
decision_type=2 2 2 2 2 2 2 2 2 2 2 2 2 2 2 2 2 2 2 2 2 2 2 2 2 2 2 2 2 2 2 2 2 2 2 2 2 2 2 2 2 2 2 2 2 2 2 2 2 2 2 2 2 2 2 2 2 2 2 2 2 2 2
left_child=3 2 4 5 11 8 15 12 29 17 23 25 -6 30 -15 19 21 -8 -9 -4 34 33 -11 37 -17 -2 -13 -25 31 42 -10 -23 -31 40 43 45 53 -7 50 57 -5 -35 -1 62 52 54 61 -30 -48 -41 55 -38 -37 -36 -22 -18 -47 -12 -45 -52 -46 -40 -3
right_child=1 20 6 16 7 10 9 18 13 22 39 26 -14 14 -16 24 38 -19 -20 -21 35 28 -24 27 -26 -27 -28 -29 47 32 -32 -33 -34 41 36 44 51 -39 46 49 -42 -43 -44 58 60 56 48 -49 -50 -51 59 -53 -54 -55 -56 -57 -58 -59 -60 -61 -62 -63 -64
leaf_value=-0.0011009995336925442 0.0012357887323267694 -0.0015909684116958553 0.012662911909217516 -0.00044102089650092236 0.0050941960845445819 -0.0010523936886285346 0.012157160254079577 0.010907675595421619 0.0019907060102000562 0.012227619320110435 -0.0016042100869190629 0.0072091329660874679 0.0080491740633542447 0.0015879573936702519 0.0039914280568304882 0.01314998296507177 -0.0024117618542962064 0.0093128486552590851 0.0076623475583939751 0.018342356932347495 0.00031373648424504549 -0.00046665951288232392 0.014441833691926287 0.00067875040647486244 0.0064175458753355941 0.0032899369349777591 0.0048044631852979941 0.0032999437312833959 -0.00071618650181433732 0.0014142481840907356 0.00012116301647630138 0.0015390025089134761 -5.1632896235854373e-05 -0.0017595316563427952 -0.0008559817751488814 0.0012291065483980008 -0.00011184572263664246 0.000475307044485582 -0.0022705499615668034 -0.0013556319036237515 -0.0018679409370305933 -0.0022389774400605315 0.00088263849782341806 -0.00090676400247233571 0.0016487842145377443 -9.6845194786301575e-05 -0.0013938697427592049 -0.0017029413242142897 -0.0021356055309228812 -0.00078664916407996332 -0.0016443277191936568 0.00033740434839629957 0.00077933942895122099 -0.00039326718087374094 0.00097328598687236199 -0.0022615656082144433 0.00030279115579403453 -0.0019063516381599053 -0.00048670807603618384 -0.0021299966750646009 0.0011806433205201964 -0.001913834550808152 -0.0013367937479337464
leaf_weight=3439 3376 1173 492 1636 4811 768 3813 5515 1348 2673 1995 1295 6920 7755 7926 828 171710 6374 2741 2180 702 2798 3717 1260 164 2374 3957 1998 488 1594 4632 1289 6239 11710 2834 2087 3058 2049 1999 8857 597 5697 185 1213 1849 1717 1944 1868 957 1031 531 2287 2632 1450 1112 8011 1384 3781 1119 1136 416 431 1352
leaf_count=3439 3376 1173 492 1636 4811 768 3813 5515 1348 2673 1995 1295 6920 7755 7926 828 171710 6374 2741 2180 702 2798 3717 1260 164 2374 3957 1998 488 1594 4632 1289 6239 11710 2834 2087 3058 2049 1999 8857 597 5697 185 1213 1849 1717 1944 1868 957 1031 531 2287 2632 1450 1112 8011 1384 3781 1119 1136 416 431 1352
internal_value=0 0.00584723 0.00882305 -0.00169557 0.00650949 0.000544986 0.0123649 0.00807424 0.00137426 0.0115882 -0.00071827 0.00366654 0.00683764 0.00217917 0.00280298 0.0158771 -0.00227316 0.010378 0.00983078 0.0172989 6.9174e-05 -0.00145921 0.0135165 0.0012538 0.0120413 0.00208436 0.00539815 0.00228699 -0.000443086 -0.000147376 0.000543005 0.000165484 0.000246458 -0.00179244 -0.000545077 0.000817135 -0.000266767 5.80317e-05 -0.00238684 -0.00148324 -0.000823608 -0.0019166 -0.000999121 -0.00109637 0.00116885 0.000316922 -0.00189925 -0.00149952 -0.00163944 -0.00129653 -0.00240116 8.00118e-05 0.00097874 -0.000699873 0.000719243 -0.00240508 8.08827e-05 -0.00180243 -0.000706148 -0.00197682 0.00156385 -0.00220835 -0.00145584
internal_weight=0 77615 51230 267659 30989 54857 20241 19987 33118 16577 21739 11002 11731 21661 15681 3664 212802 10187 8256 2672 26385 26083 6390 6075 992 5750 5252 3258 6443 11457 5980 4087 7833 19640 14486 11899 9629 2817 186719 15664 2233 17407 3624 4857 6984 4915 5331 2356 2901 9888 181388 5345 4719 4284 1814 179721 3101 5776 2332 1667 2265 2430 2525
internal_count=345274 77615 51230 267659 30989 54857 20241 19987 33118 16577 21739 11002 11731 21661 15681 3664 212802 10187 8256 2672 26385 26083 6390 6075 992 5750 5252 3258 6443 11457 5980 4087 7833 19640 14486 11899 9629 2817 186719 15664 2233 17407 3624 4857 6984 4915 5331 2356 2901 9888 181388 5345 4719 4284 1814 179721 3101 5776 2332 1667 2265 2430 2525
is_linear=0
shrinkage=0.01


Tree=2
num_leaves=64
num_cat=0
split_feature=121 0 3 9 109 21 21 0 9 3 61 21 61 61 3 56 103 30 9 9 26 61 121 9 43 72 9 43 21 61 0 21 21 42 61 127 30 61 30 55 61 49 29 0 133 9 109 73 3 60 3 9 0 127 43 133 21 121 30 26 120 0 30
split_gain=33550.7 9458.73 3718.49 3700.67 3132.08 1195.57 770.673 711.41 619.222 606.244 563.015 358.626 303.748 299.402 292.018 281.332 250.057 215.147 172.877 166.086 155.409 132.224 118.821 116.571 115.18 86.1291 81.1691 72.2919 56.2242 54.0672 49.2393 46.772 44.108 43.4131 41.3046 41.0789 35.0298 29.4951 28.3633 26.9115 26.3438 24.6497 21.7648 20.9279 20.4876 16.5588 14.9938 13.688 11.0438 9.16286 7.69202 7.25277 6.34306 5.4214 5.37996 4.90559 4.55916 3.63182 3.47692 2.98677 3.43124 0.635004 0.483116
threshold=396.26855468750006 5.5000000000000009 99243.246093750015 619.37078857421886 55.243150711059577 14.375000000000002 15.125000000000002 5.5000000000000009 693.17361450195324 96248.699218750015 314.34217834472662 13.625000000000002 218.0195007324219 428.92523193359381 99548.636718750015 78.676586151123061 95744.082031250015 -0.19509041309356687 465.10494995117193 169.3724060058594 -0.37940952181816096 530.83511352539074 653.93411254882824 510.19134521484381 95689.351562500015 2.4449832439422612 738.37063598632824 96784.175781250015 13.625000000000002 346.04989624023443 1.5000000000000002 16.375000000000004 16.125000000000004 -70.71340179443358 194.12627410888675 95762.210937500015 -0.3826832622289657 453.95190429687506 -0.84874746203422535 101137.01953125001 453.95190429687506 720.41290283203136 -0.52778503298759449 5.5000000000000009 709.18981933593761 236.71080017089847 197.17759704589847 228.06377410888675 96361.601562500015 292.95191955566412 100118.85546875001 465.10494995117193 5.5000000000000009 100102.43750000001 98530.304687500015 819.66479492187511 11.875000000000002 221.54565429687503 -0.13052606582641599 0.98296290636062633 292.33164978027349 5.5000000000000009 0.065403338521718993
decision_type=2 2 2 2 2 2 2 2 2 2 2 2 2 2 2 2 2 2 2 2 2 2 2 2 2 2 2 2 2 2 2 2 2 2 2 2 2 2 2 2 2 2 2 2 2 2 2 2 2 2 2 2 2 2 2 2 2 2 2 2 2 2 2
left_child=4 3 8 5 17 10 7 12 23 15 24 13 27 -11 34 20 -12 36 32 -14 -5 33 42 28 -2 -17 -13 -6 -3 -25 -20 35 -7 -10 -9 46 39 59 -23 41 49 -1 51 -37 56 54 -8 -44 -47 -38 -42 -4 -41 58 -33 -46 -24 -16 -39 62 -61 -55 -19
right_child=1 2 22 9 6 18 31 14 21 11 16 26 19 -15 57 25 -18 37 30 -21 -22 38 44 29 -26 -27 -28 -29 -30 -31 -32 45 -34 -35 -36 43 40 53 -40 52 50 -43 47 -45 55 48 -48 -49 -50 -51 -52 -53 -54 61 -56 -57 -58 -59 -60 60 -62 -63 -64
leaf_value=-0.00078564997723395286 0.00820075800071789 0.0056657839243265239 -0.0014130620229666439 0.013238633063897373 0.0029501231225515811 0.0026451586478077392 0.0002098250830901263 0.00084200380024635803 0.012892442394130552 0.0095930148750845677 0.012502883932306712 0.0074604653846079717 0.0018484794078766403 0.01323768273071377 -0.0014658197760662422 0.0065291724159166967 0.0085300840205480982 -0.002317234246330172 0.0022637846750120458 0.0046239741389748753 0.018773671919760732 0.014872655786625196 0.00071206401574571343 0.0048013057687095861 0.004664026789348942 0.013049572135622772 0.010428025178936992 0.00098606348129821842 0.0028400652968809436 0.0081164812831388787 0.0052305345220070342 -0.0015222085972017873 0.00057034943963412581 0.0086993396335488891 0.0027398691628960753 -0.00044134822107829113 -0.0021121545126761968 -0.00048721190954817049 0.011188114384349397 -0.00055097114790979241 0.00017246616329167773 0.0010846163517296407 -0.00067881783517902681 -0.0015652102385267719 0.00092977377422403086 0.00016852590671771487 0.0025373467169923702 9.6896414345073323e-05 -0.0013107661315774042 -0.0014486803231642715 -0.0013526584513778317 -0.00066865595938483426 -0.0019224338148331791 -0.0014265844139894114 -0.002028323405231161 0.0014693269559235267 8.006762727072125e-05 -0.0011050569896648194 -0.0013813867458357502 -0.0023077400766162975 -0.0018200592276839389 -0.0020388380579038491 -0.0023898559569528049
leaf_weight=7120 1156 1609 2713 676 2278 2345 757 2506 320 3142 1964 2276 3268 8061 4952 267 8298 12125 687 6356 2116 969 1814 653 4580 872 1567 10610 1261 2061 3092 3395 1825 1153 2121 3695 6391 661 280 396 850 781 4077 3014 4045 663 438 5137 2082 3130 539 2559 2464 237 5737 2939 3101 6619 1321 5617 2019 1031 164486
leaf_count=7120 1156 1609 2713 676 2278 2345 757 2506 320 3142 1964 2276 3268 8061 4952 267 8298 12125 687 6356 2116 969 1814 653 4580 872 1567 10610 1261 2061 3092 3395 1825 1153 2121 3695 6391 661 280 396 850 781 4077 3014 4045 663 438 5137 2082 3130 539 2559 2464 237 5737 2939 3101 6619 1321 5617 2019 1031 164486
internal_value=0 0.00578877 0.00190551 0.00892712 -0.00167861 0.00631298 0.000366994 0.00118756 0.00774061 0.0122256 0.00788807 0.011311 0.0023375 0.012216 -0.000410505 0.0157247 0.00929096 -0.00225065 0.00314254 0.0036818 0.0174358 0.0116521 6.84816e-05 0.00583302 0.00537754 0.011525 0.00867174 0.00133343 0.00442536 0.00732019 0.00469195 -0.00123869 0.0017377 0.00961406 0.00171253 -0.00064217 -0.00130705 -0.0023597 0.0140511 -0.000901792 -0.00170656 -0.00060049 -0.000539635 -0.000946586 0.000808973 -0.00163548 0.00106502 -0.000246135 -0.000952765 -0.0018943 -0.000418082 -0.00105217 -0.00173332 -0.00141359 -0.00184044 0.00115717 0.000313757 -0.00125966 -0.00108431 -0.00237637 -0.00217913 -0.00192634 -0.00238489
internal_weight=0 77615 34691 42924 267659 23947 58491 38710 8306 18977 15998 15046 22512 11203 16198 3931 10262 209168 7949 9624 2792 2722 26385 5584 5736 1139 3843 12888 2870 2714 3779 19781 4170 1473 4627 7904 21671 187497 1249 10761 10910 7901 14486 6709 11899 11877 1195 9214 2745 9521 1389 5272 2860 3250 9132 6984 4915 11571 1982 184247 7636 1268 176611
internal_count=345274 77615 34691 42924 267659 23947 58491 38710 8306 18977 15998 15046 22512 11203 16198 3931 10262 209168 7949 9624 2792 2722 26385 5584 5736 1139 3843 12888 2870 2714 3779 19781 4170 1473 4627 7904 21671 187497 1249 10761 10910 7901 14486 6709 11899 11877 1195 9214 2745 9521 1389 5272 2860 3250 9132 6984 4915 11571 1982 184247 7636 1268 176611
is_linear=0
shrinkage=0.01


Tree=3
num_leaves=64
num_cat=0
split_feature=121 1 133 30 21 1 9 61 121 21 31 26 31 49 43 9 61 121 43 74 9 103 21 55 28 1 55 21 133 55 30 21 9 1 61 30 9 9 60 2 21 9 21 9 61 33 30 60 61 109 61 133 9 21 81 9 9 9 11 91 9 9 121
split_gain=32883.2 12819.6 4040.24 3328.01 1212.87 896.022 651.488 611.458 522.573 361.227 247.82 225.658 221.877 219.396 204.545 191.943 188.108 116.458 111.585 90.5529 87.8906 85.0737 79.9449 72.6744 71.8865 51.8829 47.3923 46.4137 36.4191 34.5933 31.9022 21.3359 19.4586 15.9054 14.0506 12.6366 9.88308 9.3798 9.04981 9.42516 6.66249 6.50455 4.9859 4.80566 3.9785 2.80951 2.69791 2.99743 2.63811 2.38748 1.86035 1.53647 1.22477 1.27336 1.16919 1.09466 0.974979 0.800972 0.646741 0.479017 0.4741 0.188429 0.101124
threshold=396.26855468750006 1560.0000000000002 611.03167724609386 -0.3826832622289657 14.375000000000002 1560.0000000000002 786.82647705078136 326.88577270507818 203.38105010986331 13.375000000000002 95359.406250000015 -0.37940952181816096 95101.796875000015 720.41290283203136 95567.394531250015 479.12834167480474 218.0195007324219 653.93411254882824 95689.351562500015 0.0001575291025801562 63.005998611450202 98137.503906250015 14.375000000000002 95639.558593750015 0.11678428947925569 1560.0000000000002 95639.558593750015 15.625000000000002 120.58898162841798 95596.695312500015 -0.19509041309356687 14.375000000000002 720.32467651367199 1560.0000000000002 306.45866394042974 -0.13052606582641599 35.168800354003913 136.12304687500003 292.84687805175787 1250.0000000000002 14.125000000000002 460.65756225585943 11.875000000000002 845.57986450195324 424.33540344238287 0.82049000263214122 0.065403338521718993 294.54466247558599 428.92523193359381 62.075799942016609 428.92523193359381 669.62960815429699 63.005998611450202 14.625000000000002 -1.5999171733856199 78.890998840332045 528.71115112304699 376.02870178222662 7.9509999752044687 -0.17341990023851392 246.46189880371097 119.68944931030275 43.902750015258796
decision_type=2 2 2 2 2 2 2 2 2 2 2 2 2 2 2 2 2 2 2 2 2 2 2 2 2 2 2 2 2 2 2 2 2 2 2 2 2 2 2 2 2 2 2 2 2 2 2 2 2 2 2 2 2 2 2 2 2 2 2 2 2 2 2
left_child=3 2 4 5 7 8 9 18 20 10 -4 29 19 30 -9 27 -13 31 -2 -8 36 -14 -22 -11 33 28 -17 -6 -26 -10 38 34 42 35 54 -15 -1 52 49 -40 45 57 50 48 -36 -39 47 -32 -34 -5 -19 -44 62 -54 -3 -27 -43 -33 -45 -42 -35 -48 -7
right_child=1 17 6 13 15 37 12 14 11 23 -12 16 21 24 -16 26 -18 32 -20 -21 22 -23 -24 -25 25 55 -28 -29 -30 -31 46 41 43 60 44 -37 -38 40 39 -41 59 56 51 58 -46 -47 61 -49 -50 -51 -52 -53 53 -55 -56 -57 -58 -59 -60 -61 -62 -63 -64
leaf_value=-0.0012727679304848803 0.0079410745563878275 -6.634685028786197e-06 0.014859593389289794 -0.0021197210753304062 0.0031028289175813605 -0.0020789906178564381 0.01855258940532472 0.011790022806068761 0.0024793932108223382 0.010459211866883434 0.010781283035860543 0.0019714992713612896 0.011797804933821725 -0.00084190664976344478 0.0083565126589396493 0.0069324663611200991 0.0043484366048890397 0.00033202530079364147 0.0047331877328488483 0.013509138115135787 0.0010769203939831635 0.014027171794169114 -0.00067994080504579638 0.0076895854665233613 -0.00022976639382247369 -0.0017972459652509064 0.0042544668697316749 0.0012065107902259453 0.0019515841237048711 0.00051594474879892657 -0.0023189276164212219 -0.0016549943967964077 0.00036682251440163949 -0.002139542755183865 -0.00021438281219998765 -0.0016576959051621779 -0.00043861904807852143 -0.00093925089376030208 -0.0010830577332178034 -0.0020827447967066222 -0.0014420342815629882 -0.0008904431165039625 -0.00011171366951328159 0.0015834761875577318 0.00027663730134804449 -0.001331586509597955 -0.0023658755037971211 -0.002040689823596592 0.0010653071611781389 -0.0017093133732616653 0.00097069882545823235 0.00032526599122787044 -0.0015514093654021002 -0.0020059656331888795 -0.00092894168925151987 -0.0012363587311089712 -0.00047515753746397337 -0.0012766536912602595 0.00091145429526843353 -0.0017713819961901198 -0.0018094889896200382 -0.002102178220647699 -0.0018859477621352727
leaf_weight=2733 1324 150 1897 5975 2096 870 1235 2136 1108 1250 7055 6229 2989 3608 9384 863 7165 736 6073 512 10340 4121 3454 4034 1837 899 2886 3375 1310 4741 13764 998 642 2955 4270 4045 2979 4245 2667 1474 682 1213 1672 2094 2688 3299 164965 5652 3789 1954 1252 1543 2868 844 2521 629 1119 1527 171 2048 636 432 1252
leaf_count=2733 1324 150 1897 5975 2096 870 1235 2136 1108 1250 7055 6229 2989 3608 9384 863 7165 736 6073 512 10340 4121 3454 4034 1837 899 2886 3375 1310 4741 13764 998 642 2955 4270 4045 2979 4245 2667 1474 682 1213 1672 2094 2688 3299 164965 5652 3789 1954 1252 1543 2868 844 2521 629 1119 1527 171 2048 636 432 1252
internal_value=0 0.0057309 0.00864751 -0.00166183 0.0061031 0.000534347 0.0117475 0.00755264 0.00135838 0.0104215 0.0116462 0.00252758 0.0138781 -0.00222798 0.00899361 0.00312867 0.00324324 6.77976e-05 0.00530794 0.0170782 0.000204822 0.0130908 0.000636854 0.00834571 -0.0010985 -5.5888e-05 0.00487197 0.00193351 0.000677727 0.000888339 -0.00231929 -0.00053424 0.00080089 -0.00153181 -0.000261383 -0.0012734 -0.000838127 -0.0014478 -0.00182033 -0.00143951 -0.00126519 -0.00107472 0.00034156 0.00115747 -2.44018e-05 -0.00111113 -0.00235186 -0.00223807 0.000964588 -0.0020189 0.00073534 9.73981e-05 -0.00176896 -0.00165545 -0.000877901 -0.00156795 -0.000692114 -0.00142716 0.00153375 -0.00169001 -0.0020818 -0.0023652 -0.00196632
internal_weight=0 77615 51230 267659 28137 54857 23093 18917 38749 14236 8952 19243 8857 212802 11520 9220 13394 26385 7397 1747 19506 7110 13794 5284 15919 4675 3749 5471 3147 5849 196883 14486 11899 11244 9629 7653 5712 16108 12070 4141 10274 4857 5203 6696 6958 7544 184813 19416 4431 7929 1988 3215 5834 3712 2671 1528 2332 2525 2265 2730 3591 165397 2122
internal_count=345274 77615 51230 267659 28137 54857 23093 18917 38749 14236 8952 19243 8857 212802 11520 9220 13394 26385 7397 1747 19506 7110 13794 5284 15919 4675 3749 5471 3147 5849 196883 14486 11899 11244 9629 7653 5712 16108 12070 4141 10274 4857 5203 6696 6958 7544 184813 19416 4431 7929 1988 3215 5834 3712 2671 1528 2332 2525 2265 2730 3591 165397 2122
is_linear=0
shrinkage=0.01


Tree=4
num_leaves=64
num_cat=0
split_feature=121 1 9 30 29 1 61 121 31 9 56 9 29 21 49 61 31 21 55 121 9 26 103 51 28 28 31 1 9 55 61 21 9 2 61 30 30 60 9 1 9 21 22 9 60 61 97 49 97 109 9 9 21 98 9 30 9 44 97 30 9 21 121
split_gain=32228.9 12564.5 4091.75 3261.78 1234.56 878.199 588.31 512.58 511.055 406.448 284.567 230.824 223.754 219.044 215.027 203.889 199.873 154.359 118.329 114.144 96.9366 85.7467 83.3754 72.2394 70.4558 55.369 51.158 50.8511 37.6265 26.091 23.9754 20.9261 19.0713 15.5885 13.1132 12.3846 11.1655 9.64075 9.19282 7.64328 6.96409 6.52957 4.88683 4.70968 3.7123 3.55111 2.82117 2.77235 1.7506 1.59552 1.3611 1.19975 1.24739 1.14193 1.07226 1.0117 0.958554 0.717843 0.501192 0.478055 0.463819 0.459969 0.0983383
threshold=396.26855468750006 1560.0000000000002 628.85418701171886 -0.3826832622289657 -0.52778503298759449 1560.0000000000002 326.88577270507818 213.88150024414065 95101.796875000015 786.82647705078136 81.219322204589858 479.12834167480474 -0.16280824691057202 14.375000000000002 720.41290283203136 218.0195007324219 95050.429687500015 13.875000000000002 95426.167968750015 653.93411254882824 63.005998611450202 -0.37940952181816096 98137.503906250015 4.1704499721527108 0.11678428947925569 0.050928704440593726 95517.328125000015 1560.0000000000002 93.646347045898452 95596.695312500015 112.22286605834962 14.125000000000002 720.32467651367199 1250.0000000000002 306.45866394042974 -0.13052606582641599 -0.25881907343864435 294.30041503906256 136.12304687500003 1560.0000000000002 465.10494995117193 14.125000000000002 1.5000000000000002 845.57986450195324 294.54466247558599 424.33540344238287 -0.1496455520391464 573.62265014648449 -0.19914690405130384 28.977549552917484 660.15191650390636 63.005998611450202 14.625000000000002 1.3692700266838076 78.890998840332045 0.065403338521718993 396.86784362792974 78.334747314453139 -0.10676103085279463 0.065403338521718993 246.46189880371097 15.375000000000002 43.902750015258796
decision_type=2 2 2 2 2 2 2 2 2 2 2 2 2 2 2 2 2 2 2 2 2 2 2 2 2 2 2 2 2 2 2 2 2 2 2 2 2 2 2 2 2 2 2 2 2 2 2 2 2 2 2 2 2 2 2 2 2 2 2 2 2 2 2
left_child=3 2 4 5 11 7 18 20 10 12 17 25 -10 15 30 -9 -8 -4 -6 31 37 -22 -11 -12 33 -2 -13 28 -26 -15 49 34 42 35 53 -16 39 -1 51 -32 56 47 48 46 -38 -36 -34 -40 -21 59 -44 62 -53 -3 -29 -51 -33 -45 -42 -5 -35 -43 -7
right_child=1 19 8 14 6 38 16 13 9 22 23 26 -14 29 24 -17 -18 -19 -20 32 21 -23 -24 -25 27 -27 -28 54 -30 -31 36 40 43 60 45 -37 44 -39 41 -41 58 61 50 57 -46 -47 -48 -49 -50 55 -52 52 -54 -55 -56 -57 -58 -59 -60 -61 -62 -63 -64
leaf_value=-0.00096089816060170854 0.0011947788799574301 -0.00098833994394639021 0.017786664318644362 -0.0022623268839791965 0.0082589355088314477 -0.0020582078803864866 0.012029455618628473 0.0019392146243685507 0.008371821993861446 0.011679838594108111 0.013007890131503018 0.0068315468723010508 0.011258992693710938 0.0022472557844885723 -0.00083348828209766756 0.0044206705950507784 0.0084583668571977019 0.012488083990650461 0.0048060747746015743 0.00091317232219220474 -0.00046833033947025744 0.0011831596110659954 0.013886909797881266 0.0075011133908900974 -0.00010913546848853391 0.0031894243738730503 0.0044073894226250819 -0.0017792794981885017 0.0022017652107983424 0.00033231769871965066 -0.0013927926084584296 -0.0015781502891828029 0.001039687459397934 -0.002118149501165754 -0.00019602738869650555 -0.0016411201784070565 -0.0022444927701662331 0.00044766595291291728 -0.0012635433387099655 -0.0021121947221886066 -0.00059207521613011387 -0.0015165555369094275 -0.00014351481318446074 0.0016402134907725525 -0.00188194730971981 0.00027515753375001445 0.000196903942188293 -0.00087156535639821848 0.00024604654776702833 -0.001899014038756039 0.00027250167703731204 -0.0015358968993866853 -0.0019859131109942361 -0.00051382527220630576 -0.0012240010430634109 -0.0022595743635902342 -0.0011904539105888332 0.0012351823312578283 -0.00098419194799391268 -0.0023426146082455544 -0.0017914026241931606 -0.0017981447441751338 -0.0018670928065924542
leaf_weight=5180 3376 1808 2344 9661 1195 870 1872 6329 5165 2989 486 1158 5624 882 3608 6955 9803 727 5939 1433 4445 10727 4121 476 2084 2374 3581 899 1063 3697 4446 1356 3983 2955 4010 4045 9559 534 4391 2243 2150 1221 1356 1578 4162 2660 448 3153 555 1415 1859 2868 844 736 629 2151 1357 687 409 163246 636 1509 1252
leaf_count=5180 3376 1808 2344 9661 1195 870 1872 6329 5165 2989 486 1158 5624 882 3608 6955 9803 727 5939 1433 4445 10727 4121 476 2084 2374 3581 899 1063 3697 4446 1356 3983 2955 4010 4045 9559 534 4391 2243 2150 1221 1356 1578 4162 2660 448 3153 555 1415 1859 2868 844 736 629 2151 1357 687 409 163246 636 1509 1252
internal_value=0 0.0056736 0.00856105 -0.00164521 0.00611561 0.000529 0.00764863 0.0013448 0.0118276 0.0111021 0.0150458 0.00336626 0.00987728 0.00258846 -0.0022057 0.00323863 0.00903143 0.0165343 0.00538506 6.71189e-05 0.00028103 0.000699185 0.0129599 0.0102884 -0.00108753 0.00201878 0.00500056 -5.53342e-05 0.000670945 0.00070173 -0.0022961 -0.000528906 0.00079289 -0.0015165 -0.000241111 -0.00126067 -0.00197087 -0.000828895 -0.00143333 -0.00163441 -0.00103147 -0.00125254 0.000338149 0.00114591 -0.00213471 -7.8148e-06 0.000954948 -0.00110002 0.000727999 -0.0023337 9.64181e-05 -0.00175129 -0.00163891 -0.000851922 -0.00155229 -0.00211724 -0.00138512 0.00151843 -0.000655636 -0.00233814 -0.00206099 -0.00167312 -0.00194667
internal_weight=0 77615 51230 267659 29298 54857 18809 38749 21932 17899 4033 10489 10789 17863 212802 13284 11675 3071 7134 26385 20886 15172 7110 962 15919 5750 4739 4675 3147 4579 196883 14486 11899 11244 9214 7653 20410 5714 16108 6689 5272 10274 5203 6696 13721 6670 4431 7544 1988 176473 3215 5834 3712 2544 1528 3566 2713 2265 2559 172907 3591 2730 2122
internal_count=345274 77615 51230 267659 29298 54857 18809 38749 21932 17899 4033 10489 10789 17863 212802 13284 11675 3071 7134 26385 20886 15172 7110 962 15919 5750 4739 4675 3147 4579 196883 14486 11899 11244 9214 7653 20410 5714 16108 6689 5272 10274 5203 6696 13721 6670 4431 7544 1988 176473 3215 5834 3712 2544 1528 3566 2713 2265 2559 172907 3591 2730 2122
is_linear=0
shrinkage=0.01


Tree=5
num_leaves=64
num_cat=0
split_feature=121 1 9 30 21 2 61 9 121 21 21 31 61 109 43 73 103 31 55 121 74 9 103 21 28 28 1 55 30 9 55 29 133 1 73 30 9 132 2 9 9 29 9 21 30 36 9 61 33 21 97 97 30 121 9 21 9 44 169 91 9 9 9
split_gain=31587.7 12314.5 4010.33 3196.87 1209.99 860.731 576.599 532.964 502.41 288.388 220.51 214.434 207.193 198.585 196.145 187.56 165.586 122.207 119.282 111.875 87.3911 84.35 81.711 76.9594 69.8357 64.0005 49.5339 41.7775 35.9818 32.1112 25.2006 20.51 19.3579 14.3978 12.976 12.1647 11.3575 9.82261 11.3167 9.00956 6.82511 6.39931 4.79652 4.30397 3.06057 3.15502 2.88933 2.77416 2.72787 2.24945 1.83535 1.35804 1.14369 1.08879 1.00396 0.988419 0.938934 0.702947 0.579703 0.469145 0.44157 0.183092 0.143613
threshold=396.26855468750006 1560.0000000000002 628.85418701171886 -0.3826832622289657 14.125000000000002 1250.0000000000002 326.88577270507818 786.82647705078136 203.38105010986331 12.625000000000002 14.375000000000002 95101.796875000015 389.97923278808599 426.64549255371099 95567.394531250015 139.09326171875003 95426.078125000015 95306.941406250015 95639.558593750015 653.93411254882824 0.0001575291025801562 63.005998611450202 98137.503906250015 14.375000000000002 0.11678428947925569 -0.13776601105928418 1560.0000000000002 95811.574218750015 -0.19509041309356687 93.646347045898452 95596.695312500015 -0.52778503298759449 709.18981933593761 1560.0000000000002 228.06377410888675 -0.65934577584266651 246.46189880371097 289.57409667968756 1250.0000000000002 136.12304687500003 465.10494995117193 -0.52778503298759449 845.57986450195324 11.875000000000002 0.065403338521718993 291.93093872070318 417.46060180664068 306.45866394042974 0.82049000263214122 12.125000000000002 -0.14076441526412961 -0.098541632294654832 -0.32143935561180109 78.119899749755874 89.428100585937514 14.625000000000002 396.86784362792974 78.334747314453139 0.020590409636497501 -0.17341990023851392 259.84045410156256 119.68944931030275 29.595049858093265
decision_type=2 2 2 2 2 2 2 2 2 2 2 2 2 2 2 2 2 2 2 2 2 2 2 2 2 2 2 2 2 2 2 2 2 2 2 2 2 2 2 2 2 2 2 2 2 2 2 2 2 2 2 2 2 2 2 2 2 2 2 2 2 2 2
left_child=3 2 4 5 6 8 17 9 21 16 15 20 28 25 -8 -10 -4 -2 -11 31 -9 35 -13 -23 33 -6 29 -15 37 -26 -12 40 43 36 47 -1 -14 52 -39 53 56 59 49 50 45 -30 -36 -33 -43 -34 -21 -45 -5 62 -28 -55 -3 -44 -42 -41 -35 -46 -7
right_child=1 19 7 12 13 39 14 11 10 18 30 22 24 27 -16 -17 -18 -19 -20 32 -22 23 -24 -25 26 -27 54 -29 44 -31 -32 34 42 60 46 -37 -38 38 -40 41 58 48 57 51 61 -47 -48 -49 -50 -51 -52 -53 -54 55 -56 -57 -58 -59 -60 -61 -62 -63 -64
leaf_value=9.5579919489278948e-05 0.0081394414958439812 -0.0015623722697829811 0.015198950499939393 -0.0018186936090397461 0.0005211372067025409 -0.002059467677307812 0.011651992176690886 0.018198885645303933 0.0017972836774997739 0.011431391331564008 0.0020959208296957728 0.011563051856312397 -0.0014235196920485134 0.0067635426362273807 0.0083192160390641225 0.0041050705310978252 0.011119751955078132 0.0047193809107381251 0.0081240689627923128 0.0008344251828356666 0.013247460746290258 0.0010552801312363001 0.013748050698463129 -0.00066845909483088755 -7.5714249662913719e-06 0.0028083509811159812 -0.0017192977032340787 0.0044365432146152659 -0.0022651685012432176 0.0021767777161926499 0.00028963912303927599 -0.00087230255969282034 0.0011874864105452217 -0.0020888023769673157 -0.00026921765031145842 -0.00105330925114734 -0.00039666409367597233 -0.0011358189395783876 -0.002053253057828156 -0.0014110127871067957 -0.00071658173950690286 -0.0009196473035167058 0.0016238144579540025 0.00017539964462156231 -0.0023187993678802218 -0.001982640107992136 0.00024958981390070496 -0.00033663183874702664 -0.0013062660477854188 0.00074399692605597531 -6.3585200568999718e-06 -0.00036749993248314677 -0.0021080799887556985 -0.0015429061009922301 -0.0011514585002984747 -0.0019528185658754561 -0.0011785520037738331 0.0012228359059254098 -0.00030132304886199463 -0.0017369154738351184 -0.0017425200826518647 -0.0020585909667040305 -0.0018404283262782521
leaf_weight=1151 1275 1356 1218 2181 1678 789 2177 1235 6229 1416 962 2989 5673 1020 9498 8117 5596 5859 4844 1506 513 10340 4121 3454 1891 4540 886 3251 14366 1043 3935 2457 2087 2739 1524 4561 1337 3884 2074 682 2138 4245 1578 2540 164965 5698 3613 1620 3299 2632 308 561 4569 3000 531 800 1357 687 421 2048 533 432 1245
leaf_count=1151 1275 1356 1218 2181 1678 789 2177 1235 6229 1416 962 2989 5673 1020 9498 8117 5596 5859 4844 1506 513 10340 4121 3454 1891 4540 886 3251 14366 1043 3935 2457 2087 2739 1524 4561 1337 3884 2074 682 2138 4245 1578 2540 164965 5698 3613 1620 3299 2632 308 561 4569 3000 531 800 1357 687 421 2048 533 432 1245
internal_value=0 0.00561687 0.00847545 -0.00162876 0.00605447 0.000523708 0.00757215 0.0117093 0.00133135 0.0104249 0.00247778 0.0136044 -0.00218364 0.00333261 0.00894112 0.00310323 0.0118498 0.00533122 0.00887301 6.64469e-05 0.0167494 0.000200265 0.0128303 0.000623508 -0.00103507 0.0021915 2.64585e-05 0.00499318 -0.00226844 0.000768399 0.000644992 -0.000523625 0.000784971 -0.00148446 -0.000238703 -0.000821459 -0.00122798 -0.00175291 -0.0014556 -0.00141901 -0.00102117 -0.00124003 0.00112343 0.000303588 -0.00230375 -0.00218506 9.52785e-05 -0.000659984 -0.00108903 0.000940619 0.000690588 7.65131e-05 -0.00201496 -0.00173379 -0.00150821 -0.00162988 -0.00137128 0.00150325 -0.000649089 -0.0016564 -0.00203317 -0.00231814 -0.00192667
internal_weight=0 77615 51230 267659 29298 54857 18809 21932 38749 13074 19243 8858 212802 10489 11675 14346 6814 7134 6260 26385 1748 19506 7110 13794 14633 6218 4351 4271 198169 2934 4897 14486 11899 10282 9214 5712 7010 12708 5958 16108 5272 10274 6984 4915 185461 20064 5137 4077 7544 4719 1814 3101 6750 5834 1417 3800 2713 2265 2559 2730 3272 165397 2034
internal_count=345274 77615 51230 267659 29298 54857 18809 21932 38749 13074 19243 8858 212802 10489 11675 14346 6814 7134 6260 26385 1748 19506 7110 13794 14633 6218 4351 4271 198169 2934 4897 14486 11899 10282 9214 5712 7010 12708 5958 16108 5272 10274 6984 4915 185461 20064 5137 4077 7544 4719 1814 3101 6750 5834 1417 3800 2713 2265 2559 2730 3272 165397 2034
is_linear=0
shrinkage=0.01


Tree=6
num_leaves=64
num_cat=0
split_feature=121 1 109 109 22 1 26 31 21 9 9 49 56 30 73 21 9 31 73 9 21 9 3 30 31 46 1 48 109 30 21 21 97 30 9 133 109 73 49 9 1 28 133 121 97 21 9 49 73 0 30 9 1 109 32 110 30 49 116 69 9 21 9
split_gain=30959.2 12069.5 3814.06 2894.11 1136.86 847.506 805.842 500.337 438.242 350.611 313.177 301.339 217.762 197.35 183.106 177.659 176.003 165.689 110.618 109.674 107.335 101.472 68.8807 64.9758 61.3901 60.4306 44.1161 38.3366 38.1157 33.3857 22.6565 22.4432 22.2168 20.0674 17.3795 13.4681 11.8252 9.30249 6.26359 4.88933 4.44338 3.73518 3.45908 3.42512 3.1952 2.64753 2.18354 2.01592 1.64521 1.49123 1.46313 1.41355 1.24112 1.22303 0.918913 0.902544 0.897558 0.873972 0.620552 0.617884 0.486044 0.36475 0.326099
threshold=396.26855468750006 1560.0000000000002 594.68505859375011 55.243150711059577 1.5000000000000002 1560.0000000000002 -0.6035533845424651 95101.796875000015 15.375000000000002 798.64328002929699 479.12834167480474 424.80979919433599 78.676586151123061 -0.19509041309356687 230.228630065918 11.875000000000002 169.3724060058594 95359.406250000015 219.60278320312503 642.00775146484386 13.625000000000002 448.18444824218756 98149.550781250015 -0.3826832622289657 95465.285156250015 3.908100008964539 1560.0000000000002 296.22885131835943 197.17759704589847 -0.3826832622289657 15.125000000000002 11.875000000000002 -0.34888108074665064 -0.3826832622289657 230.38155364990237 734.18707275390636 444.75135803222662 228.06377410888675 816.75384521484386 448.18444824218756 100.00000000000001 -0.0098441238515079004 848.77297973632824 221.54565429687503 -0.14521309733390805 12.125000000000002 408.89630126953131 573.62265014648449 255.92696380615237 3.5000000000000004 0.065403338521718993 573.72561645507824 1560.0000000000002 164.59730529785159 39.997550964355476 0.0024615500587970023 -0.3826832622289657 792.28396606445324 74.256298065185561 0.042333405464887626 44.775548934936531 16.375000000000004 286.98925781250006
decision_type=2 2 2 2 2 2 2 2 2 2 2 2 2 2 2 2 2 2 2 2 2 2 2 2 2 2 2 2 2 2 2 2 2 2 2 2 2 2 2 2 2 2 2 2 2 2 2 2 2 2 2 2 2 2 2 2 2 2 2 2 2 2 2
left_child=3 2 4 13 10 6 23 12 17 15 18 24 20 26 -12 -9 -13 -6 -2 31 -4 -10 -11 28 -8 -14 27 29 -5 -1 43 37 40 -29 -25 44 46 55 50 -39 41 -15 48 59 45 -21 -33 -45 -37 -42 -34 -38 -40 61 -46 -3 60 -58 -44 -7 -28 -32 -55
right_child=1 19 7 5 8 30 11 9 21 22 14 16 25 32 -16 -17 -18 -19 -20 35 -22 -23 -24 34 -26 -27 56 33 -30 -31 53 36 38 -35 -36 42 51 39 52 -41 49 -43 58 47 54 -47 -48 -49 -50 -51 -52 -53 -54 62 -56 -57 57 -59 -60 -61 -62 -63 -64
leaf_value=-0.00078641435541768729 0.0049491835815254062 -0.00044531466116438288 0.017911737877522753 -0.00050772060938145038 0.0080038387814248945 -0.0015090124686460149 0.0027541485333923304 0.011583572172832811 0.0010731781386513694 0.011624777070494157 0.007042856531895029 0.0016924701981229074 0.01219708669145325 -0.0016220573885422848 0.010644959576231339 0.0088495519010851065 0.0041381691513987613 0.0049679838701382701 0.0076253026848159423 0.00090546310591955537 0.013365850595885834 0.0037120356356331692 0.013746523021417507 -0.0016075146738316296 0.00084872605941360691 0.0051766765922338946 -0.0019709678114542312 0.00089164746678760691 0.0011436192577253476 -0.0018825138260723587 -0.0019136736771800265 -0.00139370487070194 -0.0021988107658352293 -0.00062246765717356971 -0.00054027148728499614 0.00023427007606334043 -0.00059093093289480268 -0.00020757455964905841 -0.0013624620616323768 0.00042862159169814259 -0.0013055887797988048 -0.00044883873020607721 0.0015840158901907584 -0.0012232470618583377 0.00064838117723685688 0.00034685372954038529 -0.00094947080617356573 -0.00086943205119977788 0.0010516198673438785 -0.0019063707403984102 -0.002295693224241749 -0.00022372640825585831 -0.00207455849798047 -0.0018732360319505654 -0.00024766949993232308 -0.00088975300662140749 -0.0021445439739555742 -0.0016854009743608005 0.0010923285255471477 -0.0012717094450550781 -0.0016949999680558713 -0.0021408534668317276 -0.001592913370862728
leaf_weight=6436 2319 1208 1895 4486 2288 2863 1992 3813 3337 2658 1920 4531 896 461 5397 6374 8414 8462 4675 1444 729 2591 3732 6010 11236 144 1382 1318 2030 4904 1331 1992 18623 2603 2054 271 2139 1938 891 3193 639 676 1730 3540 135 2102 2619 3079 3680 1357 164486 2104 364 1263 721 769 2855 548 340 2089 1625 2700 873
leaf_count=6436 2319 1208 1895 4486 2288 2863 1992 3813 3337 2658 1920 4531 896 461 5397 6374 8414 8462 4675 1444 729 2591 3732 6010 11236 144 1382 1318 2030 4904 1331 1992 18623 2603 2054 271 2139 1938 891 3193 639 676 1730 3540 135 2102 2619 3079 3680 1357 164486 2104 364 1263 721 769 2855 548 340 2089 1625 2700 873
internal_value=0 0.00556071 0.00839071 -0.00161247 0.00618529 0.000353887 0.00114806 0.011767 0.00441066 0.0110269 0.00825317 0.0021976 0.0151137 -0.00216235 0.00970036 0.0098734 0.00328234 0.00561452 0.00673852 6.57802e-05 0.0166512 0.00222703 0.0128649 -0.000735885 0.00113587 0.0112287 -0.00125861 -0.000965909 6.46121e-06 -0.00126064 -0.00147059 -0.000455121 -0.00226679 -0.000112976 -0.00133595 0.000863681 -0.000791095 -3.63216e-05 -0.002281 0.00018794 -0.0014298 -0.000926585 0.00117124 -0.00120917 0.000442503 0.000574952 -0.0011419 -0.00105901 0.000996086 -0.00171526 -0.00228585 -0.000409343 -0.00157104 -0.00196069 -0.00010384 -0.00061931 -0.0019551 -0.00207135 0.00150439 -0.00140939 -0.00182268 -0.00206648 -0.00175984
internal_weight=0 77615 51230 267659 30989 58491 40753 20241 16678 16577 14311 26173 3664 209168 7317 10187 12945 10750 6994 26385 2624 5928 6390 14580 13228 1040 21671 15261 6516 11340 17738 15962 187497 3921 8064 10423 8854 7108 184364 5131 3133 1137 6021 11571 4402 3546 4611 6619 3951 1996 183109 4243 1255 6167 856 1977 6410 3403 2070 4952 3007 4031 2136
internal_count=345274 77615 51230 267659 30989 58491 40753 20241 16678 16577 14311 26173 3664 209168 7317 10187 12945 10750 6994 26385 2624 5928 6390 14580 13228 1040 21671 15261 6516 11340 17738 15962 187497 3921 8064 10423 8854 7108 184364 5131 3133 1137 6021 11571 4402 3546 4611 6619 3951 1996 183109 4243 1255 6167 856 1977 6410 3403 2070 4952 3007 4031 2136
is_linear=0
shrinkage=0.01


Tree=7
num_leaves=64
num_cat=0
split_feature=30 72 1 133 1 73 30 9 133 49 31 1 21 120 49 31 133 49 1 49 30 25 9 28 30 56 9 21 133 133 49 1 85 30 48 9 9 30 73 60 60 30 21 9 49 30 31 30 49 60 9 21 9 97 29 133 30 97 31 30 97 97 85
split_gain=27238.4 8623.23 5341.49 3701.66 1513.57 2017.17 1231.38 736.223 569.013 489.931 344.65 340.711 312.321 300.755 285.387 277.448 149.61 112.576 91.4215 89.694 86.4005 84.0893 82.828 80.5009 75.9125 69.0207 67.1328 62.0674 36.1127 22.5828 20.2739 19.3924 15.3893 15.6249 14.4332 11.9755 10.5011 5.7932 5.12986 4.66701 4.18121 4.17919 3.88271 3.56767 3.20224 2.94055 2.70668 2.58459 2.51425 2.25 1.8799 1.87875 1.41648 1.33095 0.844708 0.791996 0.683696 0.572962 0.559956 0.522337 0.487151 0.30502 0.108161
threshold=-0.55557018518447865 2.200122714042664 1560.0000000000002 549.17120361328136 1560.0000000000002 204.88818359375003 -0.25881907343864435 738.37063598632824 326.20448303222662 816.75384521484386 95359.406250000015 1560.0000000000002 13.625000000000002 301.66365051269537 424.80979919433599 95101.796875000015 536.45367431640636 720.41290283203136 1560.0000000000002 735.18997192382824 -0.83146959543228138 0.14012221619486812 85.234298706054702 0.258511632680893 -0.81241145730018605 73.064811706542983 501.19255065917974 15.875000000000002 678.37426757812511 702.98959350585949 580.63333129882824 1560.0000000000002 -1.2266095876693723 -0.13052606582641599 295.63615417480474 215.26165008544925 430.68901062011724 -0.13052606582641599 260.21212768554693 300.96842956542974 294.54466247558599 -0.83146959543228138 13.125000000000002 818.96752929687511 870.71475219726574 -0.13052606582641599 100101.37500000001 -0.3826832622289657 724.38665771484386 297.88868713378912 119.68944931030275 11.875000000000002 316.74108886718756 -0.40030245482921595 0.99465191364288341 124.85216522216798 -0.13052606582641599 -0.41001997888088221 96814.550781250015 -0.3826832622289657 -0.44702652096748346 -0.11319064721465109 -1.1205718517303465
decision_type=2 2 2 2 2 2 2 2 2 2 2 2 2 2 2 2 2 2 2 2 2 2 2 2 2 2 2 2 2 2 2 2 2 2 2 2 2 2 2 2 2 2 2 2 2 2 2 2 2 2 2 2 2 2 2 2 2 2 2 2 2 2 2
left_child=1 4 3 8 5 14 9 10 17 18 -5 23 -10 25 24 -9 30 -3 22 37 -16 -15 34 26 -1 -7 -11 -24 36 38 41 32 45 -34 -2 -25 48 40 -18 -32 55 -6 -38 51 -31 -21 -42 53 -4 52 54 -30 -20 -13 -39 -8 60 -49 -52 -51 -33 -45 -58
right_child=6 2 28 7 16 13 19 15 12 11 -12 47 -14 21 20 -17 29 -19 49 31 -22 -23 27 35 -26 -27 -28 -29 43 44 39 56 33 -35 -36 -37 42 50 -40 -41 46 -43 -44 61 -46 -47 -48 57 -50 59 58 -53 -54 -55 -56 -57 62 -59 -60 -61 -62 -63 -64
leaf_value=0.0012488233587566173 -0.0014662430902748263 0.0024013440975608155 -0.0010402999398069525 0.012466068293425354 -0.0011567633243900275 0.0074067337777323997 -0.0021579126083460681 0.016060311729458373 0.0075918253177807626 0.0018042572586558106 0.0086285675399575858 -0.00051130305832374585 0.0041661531718074352 0.010813794369822705 0.0041140216189674318 0.012177794047914067 -0.0001513438695830415 0.005430099071836599 -0.0019605744770445233 -0.0013330674768379381 0.0017920146169477344 0.0072412653563206425 0.0011725573605264581 0.0034861168642453576 -0.0001922459580834591 0.004493915723766017 0.0045588522071478236 -0.00053788453279762327 0.0012140063005485265 0.00071334692809713128 -0.00073838681070928058 -0.001567188662771228 -0.00018850098308237641 -0.0012948263238748562 -0.00048202250058319336 0.0055614398169773994 0.00031793747903202663 -0.002271076299874102 0.00051541558908157516 -6.4513422692045276e-05 -0.0013358636862646908 -0.0015774076202509377 -0.00031159678198460638 0.0015565968551432821 0.0012647427811496689 -0.0019802286907541038 -0.0020258730955957029 -0.0011025346684705377 -0.00032562116872921442 -0.0013240167128951352 -0.0015965399399689953 0.00058706750287190995 -0.0014541034094342387 -0.001029599836207465 -0.0021585117407506705 -0.0015521571063022933 -0.0021818002324424245 -0.0015319893679530106 -0.0020437507303479757 -0.0017158244725960082 -0.0019253356770348924 0.00067556020971631795 -0.0019749000470221868
leaf_weight=9952 6536 5730 1473 3041 5906 1326 5863 2351 8836 4606 10238 1195 3815 2407 4014 8620 3358 1564 5789 1440 2675 917 3519 392 5774 2129 1097 5340 758 1753 4159 696 2558 2558 1939 1034 2356 171783 1756 1374 1356 4028 1675 1052 2733 1439 1025 770 754 956 490 1359 652 880 7846 253 964 613 948 639 1220 50 945
leaf_count=9952 6536 5730 1473 3041 5906 1326 5863 2351 8836 4606 10238 1195 3815 2407 4014 8620 3358 1564 5789 1440 2675 917 3519 392 5774 2129 1097 5340 758 1753 4159 696 2558 2558 1939 1034 2356 171783 1756 1374 1356 4028 1675 1052 2733 1439 1025 770 754 956 490 1359 652 880 7846 253 964 613 948 639 1220 50 945
internal_value=0 0.00416503 0.00700705 0.0084679 0.0013538 0.00290141 -0.00189408 0.0110926 0.00527641 -0.000189381 0.0095078 0.00161749 0.00655907 0.00768116 0.00145569 0.0130104 -0.00044854 0.00305125 -0.000943482 -0.00219844 0.00318585 0.00982958 -0.000534574 0.00286693 0.000719596 0.00561296 0.00233468 0.000141334 0.000194298 0.000531921 -0.00105722 -0.0013528 -0.001072 -0.000742098 -0.00124132 0.0049932 -0.000248175 -0.00225116 7.72278e-05 -0.000571419 -0.00199365 -0.00132757 5.58475e-05 0.00105506 0.00104978 -0.0016574 -0.00163396 -0.000957803 -0.000799304 -0.00182521 -0.00226323 0.00081263 -0.00190969 -0.000732192 -0.00226617 -0.00213326 -0.00193906 -0.00129462 -0.00189312 -0.00148253 -0.00179655 0.00151863 -0.00208075
internal_weight=0 107933 53672 44195 54261 29194 237341 24250 19945 35957 13279 10587 12651 6779 22415 10971 25067 7294 25370 201384 6689 3324 17334 7129 15726 3455 5703 8859 9477 9600 15467 11820 7995 5116 8475 1426 6258 189564 5114 5533 8497 9934 4031 3219 4486 2879 2381 3458 2227 8036 181067 2117 6441 2075 179629 6116 3825 1383 1438 1595 1916 1102 1909
internal_count=345274 107933 53672 44195 54261 29194 237341 24250 19945 35957 13279 10587 12651 6779 22415 10971 25067 7294 25370 201384 6689 3324 17334 7129 15726 3455 5703 8859 9477 9600 15467 11820 7995 5116 8475 1426 6258 189564 5114 5533 8497 9934 4031 3219 4486 2879 2381 3458 2227 8036 181067 2117 6441 2075 179629 6116 3825 1383 1438 1595 1916 1102 1909
is_linear=0
shrinkage=0.01


Tree=8
num_leaves=64
num_cat=0
split_feature=133 1 133 30 29 9 61 31 9 21 1 21 9 103 31 61 31 49 31 133 74 127 9 115 28 28 21 121 1 3 31 31 30 9 26 9 1 30 9 48 61 30 1 9 121 26 61 9 21 9 133 9 9 30 72 97 97 9 18 9 21 31 30
split_gain=29756.3 11491.6 3564.33 3147.62 1029.68 567.029 562.02 515.416 422.633 320.168 305.542 224.107 213.317 213.199 201.84 200.451 180.027 155.125 114.871 101.501 84.9386 78.7404 72.4118 71.6595 66.9946 65.3897 52.3515 49.8671 46.8111 43.0628 42.416 38.9345 33.7599 30.4406 21.205 14.4656 14.3495 13.632 11.8495 10.35 10.2195 10.2022 9.71634 8.8886 8.58257 6.48847 3.60477 3.40876 3.16833 2.9656 2.27208 1.85924 1.6493 1.60698 1.57494 1.2931 1.19439 1.1548 0.994692 0.94381 0.831964 0.824198 0.419929
threshold=344.97622680664068 1560.0000000000002 616.50064086914074 -0.3826832622289657 -0.4124861061573028 786.82647705078136 326.88577270507818 100101.37500000001 151.05369567871097 13.375000000000002 1560.0000000000002 13.125000000000002 501.19255065917974 95426.078125000015 95101.796875000015 389.97923278808599 95101.796875000015 424.80979919433599 95306.941406250015 669.62960815429699 0.0001575291025801562 98150.214843750015 151.05369567871097 95498.503906250015 0.11287339404225351 0.11678428947925569 9.8750000000000018 85.026397705078139 1560.0000000000002 95574.617187500015 95517.328125000015 95306.941406250015 -0.19509041309356687 108.84994888305665 0.12940952181816109 519.83740234375011 1560.0000000000002 -0.75183981657028187 263.27565002441412 296.34004211425787 424.33540344238287 -0.77259659767150868 1560.0000000000002 138.48929595947268 833.20104980468761 -0.37940952181816096 306.45866394042974 479.12834167480474 11.875000000000002 110.92340087890626 122.55748367309572 417.46060180664068 606.02545166015636 0.065403338521718993 1.4921630024909975 -0.1496455520391464 -0.16111186146736142 58.935699462890632 22.500000000000004 89.428100585937514 13.375000000000002 97825.355468750015 -0.13052606582641599
decision_type=2 2 2 2 2 2 2 2 2 2 2 2 2 2 2 2 2 2 2 2 2 2 2 2 2 2 2 2 2 2 2 2 2 2 2 2 2 2 2 2 2 2 2 2 2 2 2 2 2 2 2 2 2 2 2 2 2 2 2 2 2 2 2
left_child=3 2 4 7 12 9 18 8 27 13 22 17 24 -4 20 32 -8 -10 -6 34 -7 -16 41 -11 -2 36 -24 37 33 -13 -14 -29 39 -27 35 51 38 -1 -17 50 46 -9 -41 57 48 -45 -36 -42 56 53 -5 -3 -37 -34 58 -50 -21 -12 -46 -30 -56 -51 -38
right_child=1 19 5 15 6 14 16 10 11 23 43 29 30 -15 21 25 -18 -19 -20 44 -22 -23 26 -25 -26 28 -28 31 59 -31 -32 -33 49 -35 40 52 62 -39 -40 42 47 -43 -44 45 54 -47 -48 -49 55 61 -52 -53 -54 -55 60 -57 -58 -59 -60 -61 -62 -63 -64
leaf_value=0.00043430061443716015 0.0016195420726565291 -0.0012847961575782232 0.014440551378482361 -0.0019713076842485752 0.0081025978087624663 0.017688917172816364 0.011919280332593558 0.0011570915132344572 0.0015976012035779272 0.010157738694127739 -0.0018850374911699513 0.0023542683135730105 0.0070175073065580334 0.010386979257456845 0.01120772564314745 -0.0013539784753865108 0.0083541405829045418 0.0039366479321404921 0.0046025469567482257 0.0010996915598251113 0.012804819904482304 0.013354253741059653 0.0041426603334203792 0.0073257139383365094 0.0036197206491685968 0.00011077638865934547 0.001419507769881045 0.0017281063742061926 -0.0016679465838729108 0.00045097116518212285 0.0047191860683675688 0.00014004024564419332 -0.0021484264013924273 0.0023755869278116611 -0.00076579142442875694 -0.00045337398479888781 -0.0018233555213013411 -0.00098244084521401467 -0.00027790882843829881 -0.00089766904198313087 6.6826544422162422e-05 -0.00028218044482669033 -0.0019487348638569893 -0.0015920416455802459 0.00046221475050147782 -0.0010252430649260128 -0.00010351968739035595 0.00075524734661737436 0.00058499380627180715 -0.0015987340378086478 -0.0015600988594753346 -0.00088747589033577785 -7.5929257926828195e-05 -0.0022500454006044411 0.0015251878972632352 2.7425126315736736e-05 0.00031206690840464133 -0.0015778193803247984 0.0012864997909794408 -0.0011168839333336343 0.0011395019863518711 -0.0020192981700462181 -0.0020663306224726775
leaf_weight=804 4005 2111 1596 7141 1135 1235 1714 654 4415 1166 1946 1518 1073 7076 2972 6020 8309 7945 5466 1745 512 4138 1049 3938 2886 2107 2171 1944 886 5498 3278 7513 18428 827 1125 2560 1612 4307 1239 2505 1203 1989 1367 2854 325 7099 3084 1814 2917 818 1733 2816 2140 164836 2155 494 225 3948 284 531 834 1382 1857
leaf_count=804 4005 2111 1596 7141 1135 1235 1714 654 4415 1166 1946 1518 1073 7076 2972 6020 8309 7945 5466 1745 512 4138 1049 3938 2886 2107 2171 1944 886 5498 3278 7513 18428 827 1125 2560 1612 4307 1239 2505 1203 1989 1367 2854 325 7099 3084 1814 2917 818 1733 2816 2140 164836 2155 494 225 3948 284 531 834 1382 1857
internal_value=0 0.00551045 0.00828553 -0.00156396 0.00589096 0.0112336 0.00747184 0.000553868 0.00132351 0.00996325 -0.000649388 0.00229104 0.00355293 0.0111337 0.0132087 -0.00211658 0.00896434 0.00310136 0.005205 8.53252e-05 0.0162611 0.0124578 0.00130077 0.00797364 0.00245764 -0.00100484 0.00230757 3.65013e-05 2.8741e-05 0.000863142 0.00528688 0.000466742 -0.00220115 0.000750013 -0.000372132 -0.00067945 -0.00142421 -0.000759173 -0.0011706 -0.00170255 3.70351e-05 7.3296e-05 -0.00126938 -0.00137104 0.000944149 -0.00118802 -0.000281052 0.000481443 0.000690495 -0.0022354 -0.00189128 -0.00105818 -0.000281957 -0.00223984 0.00132286 0.000504839 0.00101081 -0.00167968 0.000850337 -0.00146314 0.00141837 -0.00186407 -0.00195417
internal_weight=0 76331 50499 268943 27866 22633 16624 55654 33944 13776 21710 19376 11242 8672 8857 213289 10023 12360 6601 25832 1747 7110 5863 5104 6891 15079 3220 14568 4351 7016 4351 9457 198210 2934 16853 9627 10728 5111 7259 12746 7226 2643 3872 15847 8979 9953 4209 3017 5381 185464 8874 4927 4700 183264 3598 3411 1970 5894 609 1417 2989 2200 3469
internal_count=345274 76331 50499 268943 27866 22633 16624 55654 33944 13776 21710 19376 11242 8672 8857 213289 10023 12360 6601 25832 1747 7110 5863 5104 6891 15079 3220 14568 4351 7016 4351 9457 198210 2934 16853 9627 10728 5111 7259 12746 7226 2643 3872 15847 8979 9953 4209 3017 5381 185464 8874 4927 4700 183264 3598 3411 1970 5894 609 1417 2989 2200 3469
is_linear=0
shrinkage=0.01


Tree=9
num_leaves=64
num_cat=0
split_feature=121 1 121 30 21 121 1 61 21 61 31 30 31 61 49 30 3 21 56 121 31 21 31 103 28 103 2 21 30 61 168 21 121 30 1 61 30 60 1 121 21 23 97 61 121 60 30 60 28 121 97 73 1 98 56 121 121 26 121 91 30 30 121
split_gain=29164.6 11367.6 3532.45 2947.48 914.436 801.191 794.72 396.069 375.367 331.103 277.864 214.413 209.702 197.782 195.006 188.944 177.622 140.104 109.69 103.469 98.4976 96.9035 80.7655 72.5987 64.0854 52.1294 46.2146 37.2374 27.8808 27.103 24.9392 19.1755 17.0344 16.0078 14.1391 12.5908 11.5073 8.23575 8.50914 8.15138 5.5905 3.97813 3.65129 3.62198 2.69877 2.5699 2.34575 2.77399 2.02661 2.94075 1.87255 1.63997 1.62683 1.1108 1.00316 0.930972 0.913893 0.859166 0.593005 0.445821 0.339875 0.109722 0.0198777
threshold=396.26855468750006 1560.0000000000002 626.32217407226574 -0.3826832622289657 14.375000000000002 772.82873535156261 1560.0000000000002 314.34217834472662 13.625000000000002 194.12627410888675 95101.796875000015 -0.65934577584266651 95359.406250000015 381.53213500976568 720.41290283203136 -0.75183981657028187 95399.019531250015 13.375000000000002 78.676586151123061 653.93411254882824 95306.941406250015 15.375000000000002 95306.941406250015 95514.621093750015 0.11678428947925569 95426.078125000015 1250.0000000000002 16.375000000000004 -0.19509041309356687 337.20379638671881 0.072963606566190733 14.375000000000002 767.79537963867199 -0.5821658968925475 1560.0000000000002 306.45866394042974 -0.13052606582641599 293.14346313476568 1560.0000000000002 164.80274963378909 14.375000000000002 1.0000000180025095e-35 -0.1496455520391464 424.33540344238287 855.94177246093761 300.29635620117193 0.065403338521718993 294.54466247558599 -0.13776601105928418 510.57894897460943 -0.14076441526412961 228.06377410888675 1560.0000000000002 1.3692700266838076 82.791858673095717 78.119899749755874 183.76660156250003 -0.6035533845424651 533.57339477539074 -0.17341990023851392 -0.13052606582641599 -0.65934577584266651 183.76660156250003
decision_type=2 2 2 2 2 2 2 2 2 2 2 2 2 2 2 2 2 2 2 2 2 2 2 2 2 2 2 2 2 2 2 2 2 2 2 2 2 2 2 2 2 2 2 2 2 2 2 2 2 2 2 2 2 2 2 2 2 2 2 2 2 2 2
left_child=3 2 4 6 7 8 9 20 12 15 18 22 -4 -13 28 23 -9 -12 -7 31 -2 29 -11 -1 34 -10 30 -23 37 -6 -26 35 41 -17 36 53 -16 52 -39 55 45 50 44 -37 -34 -41 47 -30 58 -50 -21 -43 -5 -3 -44 61 -28 -57 -33 -42 -36 -8 -48
right_child=1 19 5 14 21 10 39 16 25 11 17 13 -14 -15 24 33 -18 -19 -20 32 -22 27 -24 -25 26 -27 56 -29 46 -31 -32 48 42 -35 60 43 -38 38 -40 40 59 51 54 -45 -46 -47 62 -49 49 -51 -52 -53 -54 -55 -56 57 -58 -59 -60 -61 -62 -63 -64
leaf_value=0.0029833577570410707 0.0073894510027925154 -0.00095863120065373662 0.013092657039335343 -0.0018078191139238634 0.0028937834666429994 0.016664611259495851 -0.0016403506095426276 0.011144567587694219 0.0086297099285841099 0.005761397047421131 0.012466349870459938 0.00038823577818466911 0.0094093381296159323 0.0032309850915065545 -0.00078662996561293266 -0.000292904892120901 0.0074475981511206426 0.0098194267030165937 0.011581400797837182 0.00083066518414310763 0.0042375973882557861 0.0024702523324168532 0.0030989609554894332 0.00087954135750083955 0.0015946447102236571 0.0061490567155951846 -0.0016947856727787172 0.00070319321638147346 -0.0021859164571170781 0.004840972073819381 -0.00018859297843961661 -0.0015630066719797006 0.00098756181315658924 -0.0011663929464166569 -0.0018414691436846639 -0.00020133174278002947 -0.0015651634497207349 -0.0009936302625690801 -0.001958070197537617 -0.0011421770824523122 -0.0013649896830785417 -0.0006067112835429193 0.00058684073941755056 0.00026717688982643605 0.0014248747460967502 -0.00060814695047279753 -0.002227354451580421 -0.0019182078029509198 -0.0012252853645590529 -0.0006609130736254065 0 0.0002094515769194191 -0.0021282120718075395 -0.00050089092856461434 -0.00038278123765161362 -0.001883781148708718 -0.0011837819166328886 -0.0014876718977981161 -0.0010091596282612717 -0.0016993856027103455 -0.002060961324055199 -0.0018967743488491474 -0.0020861399046551948
leaf_weight=1939 1228 1904 1954 5727 1182 1888 358 1550 1113 1436 7426 6917 7515 3789 3608 4185 8182 2760 556 1741 5215 3274 5573 10687 1470 3661 868 1882 13764 1844 1677 752 3269 4223 1652 4270 4045 2543 1444 7019 616 265 325 2688 2567 1055 164774 5652 1653 2154 319 3257 2356 767 156 754 660 2760 298 1870 1939 1676 623
leaf_count=1939 1228 1904 1954 5727 1182 1888 358 1550 1113 1436 7426 6917 7515 3789 3608 4185 8182 2760 556 1741 5215 3274 5573 10687 1470 3661 868 1882 13764 1844 1677 752 3269 4223 1652 4270 4045 2543 1444 7019 616 265 325 2688 2567 1055 164774 5652 1653 2154 319 3257 2356 767 156 754 660 2760 298 1870 1939 1676 623
internal_value=0 0.00539714 0.00814362 -0.00156504 0.00538517 0.0106436 0.000501766 0.00676332 0.00901673 0.00127783 0.0124779 0.0022851 0.01017 0.00139457 -0.00209784 0.000429376 0.00803694 0.0117496 0.0155106 6.43858e-05 0.00483895 0.00266031 0.00364495 0.00120285 -0.00103298 0.00672832 -4.85433e-05 0.00182572 -0.00218393 0.00408139 0.000643815 -0.000503082 0.000755392 -0.000731887 -0.0014421 -0.000244395 -0.00119843 -0.00171742 -0.00134355 -0.00136497 -0.00120117 0.000352337 0.0011112 -2.00473e-05 0.00118032 -0.00107267 -0.00221438 -0.00210812 -0.00101547 -0.000906566 0.000701629 0.000147428 -0.00190153 -0.000828007 0.000268171 -0.00167631 -0.00147565 -0.00157339 -0.00140806 -0.00161751 -0.00196071 -0.00185287 -0.00222684
internal_weight=0 77615 51230 267659 24357 26873 54857 16175 14243 38749 12630 17715 9469 10706 212802 21034 9732 10186 2444 26385 6443 8182 7009 12626 15919 4774 4675 5156 196883 3026 3147 14486 11899 8408 11244 9629 7653 12070 3987 16108 10560 5582 6317 6958 5836 8074 184813 19416 4857 3807 2060 3522 8083 2671 481 5548 1528 3514 1050 2486 3591 2034 165397
internal_count=345274 77615 51230 267659 24357 26873 54857 16175 14243 38749 12630 17715 9469 10706 212802 21034 9732 10186 2444 26385 6443 8182 7009 12626 15919 4774 4675 5156 196883 3026 3147 14486 11899 8408 11244 9629 7653 12070 3987 16108 10560 5582 6317 6958 5836 8074 184813 19416 4857 3807 2060 3522 8083 2671 481 5548 1528 3514 1050 2486 3591 2034 165397
is_linear=0
shrinkage=0.01


Tree=10
num_leaves=64
num_cat=0
split_feature=9 1 9 9 26 26 1 61 9 61 29 30 31 9 9 31 55 31 55 121 104 103 127 1 29 1 30 103 31 48 133 9 22 73 133 94 73 9 85 1 73 61 9 22 9 61 97 97 33 9 29 32 9 31 73 9 29 67 60 28 116 36 129
split_gain=28604.1 11024.9 3328.73 2894.32 941.75 842.124 976.034 578.37 483.866 367.748 268.852 228.007 194.218 182.54 166.938 156.09 154.672 120.849 108.098 91.6382 83.3505 77.3692 67.296 60.4768 61.0482 49.7762 45.4277 44.1432 40.6559 33.543 24.2704 23.1945 18.5426 17.746 13.2937 13.0904 9.32985 8.83801 6.98327 6.06092 4.69444 4.29118 3.37125 3.16814 2.79603 2.30447 1.86726 1.85273 1.78958 1.74869 1.44496 1.26599 1.20479 1.15456 1.02966 0.911088 1.31726 0.904605 0.687169 0.685578 0.669953 0.448606 0.194866
threshold=355.43374633789068 1560.0000000000002 628.85418701171886 89.428100585937514 -0.37940952181816096 -0.6035533845424651 1560.0000000000002 337.20379638671881 786.82647705078136 218.0195007324219 -0.16280824691057202 -0.19509041309356687 95101.796875000015 192.08414459228518 501.19255065917974 95359.406250000015 95426.167968750015 95306.941406250015 95639.558593750015 673.89318847656261 61.974498748779304 98137.503906250015 95530.320312500015 1560.0000000000002 -0.91037610173225392 1560.0000000000002 -0.65934577584266651 95385.835937500015 95517.328125000015 296.22885131835943 262.13708496093756 230.38155364990237 1.5000000000000002 257.97315979003912 734.18707275390636 -0.46781362593173975 228.06377410888675 519.83740234375011 -1.2634676098823545 100.00000000000001 228.06377410888675 386.07450866699224 845.57986450195324 1.5000000000000002 233.2194519042969 428.92523193359381 -0.1496455520391464 -0.16111186146736142 0.82049000263214122 236.71080017089847 0.98611509799957286 59.063301086425788 417.46060180664068 99855.816406250015 228.06377410888675 29.595049858093265 -0.77259662747383107 147.74393463134768 300.29635620117193 -0.078411884605884538 74.018550872802749 291.84489440917974 0.98374000191688549
decision_type=2 2 2 2 2 2 2 2 2 2 2 2 2 2 2 2 2 2 2 2 2 2 2 2 2 2 2 2 2 2 2 2 2 2 2 2 2 2 2 2 2 2 2 2 2 2 2 2 2 2 2 2 2 2 2 2 2 2 2 2 2 2 2
left_child=3 2 4 11 14 23 9 17 10 22 18 25 20 -11 27 -12 -9 -6 -4 32 -10 -14 -7 24 31 26 35 -2 -16 -28 -26 -5 36 41 43 -1 57 52 61 -40 48 50 46 47 -42 -38 -36 -21 -8 59 -13 -39 -34 -43 -45 58 -57 -3 -27 -25 -44 -35 -51
right_child=1 19 8 5 7 6 40 16 12 13 15 33 21 -15 28 -17 -18 -19 -20 34 -22 -23 -24 49 30 55 29 -29 -30 -31 -32 -33 37 38 42 -37 45 51 39 -41 44 53 60 54 -46 -47 -48 -49 -50 62 -52 -53 -54 -55 -56 56 -58 -59 -60 -61 -62 -63 -64
leaf_value=0.0043816061435570939 0.0040970032537798297 -0.00068187866011876609 0.010859059731827382 -0.0015980094604536659 0.0081205079083816623 0.0028999308845711752 -0.0010481801971749269 0.011600479678458665 0.018439188729472051 0.0020869964194396187 0.014186233379149297 -0.0022047717128451366 0.01098166066190615 0.0045867102369712828 0.0067642193085811469 0.010499886019475329 0.00838528038166232 0.0047160490950407469 0.0077104052052735421 0.00091618366640001112 0.014000842517761665 0.013107581060928873 0.0009738582266770894 -0.0020614559420897485 -0.00036627060342002258 -0.0020363473623153695 -0.0013701546417716291 0.0020384102410511938 0.0045037579806996393 -0.00026697872933304417 0.0010479233011459156 -0.00048997780212926725 -0.0012154962794608635 -0.0021089882578120395 0.001011708737437201 0.00020590330382128243 9.6264275663616501e-06 -0.00017182980705536654 -0.00048604099638724959 -0.0015444113021452345 -0.0010392634344574456 -0.0011951331073245274 0.0015211687654918433 -0.00051434090621359089 -0.00048512053153719649 0.00047345487145796026 0.00022454713071574505 2.9406201227847522e-05 -0.0013618996072402756 -0.0017140944035036524 -0.0020928812878122393 -0.00054455716053810059 -0.000876546728628807 -0.0019280666069652211 0.00026420259168574185 -0.0020903102919640057 -0.0016351024732629174 -0.00013736195472584592 -0.0015148717703832007 -0.0017577318203304763 0.0010680199406248516 -0.0017509430934058714 -0.0014791487119662054
leaf_weight=77 1337 1536 1416 6453 1258 2153 3190 1877 764 4681 1473 168352 2989 7791 1057 5341 7515 6172 4844 1375 984 4121 11574 3509 4502 2840 10330 4769 3306 3766 1661 2680 1768 1329 3421 2702 1968 1940 821 1626 2123 537 1821 179 1628 2374 338 290 4536 1809 13338 1755 2817 394 2788 882 2850 393 318 1108 444 617 667
leaf_count=77 1337 1536 1416 6453 1258 2153 3190 1877 764 4681 1473 168352 2989 7791 1057 5341 7515 6172 4844 1375 984 4121 11574 3509 4502 2840 10330 4769 3306 3766 1661 2680 1768 1329 3421 2702 1968 1940 821 1626 2123 537 1821 179 1628 2374 338 290 4536 1809 13338 1755 2817 394 2788 882 2850 393 318 1108 444 617 667
internal_value=0 0.00549057 0.00824472 -0.00150884 0.00591323 0.000427623 0.00134041 0.0073788 0.0111457 0.00240573 0.00992182 -0.00206068 0.0129515 0.00364875 0.00355795 0.0112977 0.0090284 0.00529304 0.00842343 0.000112298 0.0159447 0.0122146 0.00127615 -0.00110832 -0.000754161 -0.00113785 -0.000845171 0.00248968 0.00505227 -0.00107558 1.4579e-05 -0.00127311 -0.000403582 -0.00217794 0.000816922 0.000322783 6.29486e-06 -0.00071424 -0.00154808 -0.00119023 -0.00109125 -0.00219308 0.00112683 0.000413406 -0.000799347 0.000263702 0.000941485 0.000762964 -0.00123267 -0.00187173 -0.00219657 -0.000349434 -0.00100775 -0.00150798 0.000216512 -0.00185432 -0.00174338 -0.000572018 -0.00198462 -0.00198912 0.00143338 -0.00199678 -0.0016518
internal_weight=0 74430 49223 270844 27291 60065 37676 16822 21932 26199 13074 210779 8858 12472 10469 6814 9392 7430 6260 25207 1748 7110 13727 22389 15296 23765 16875 6106 4363 14096 6163 9133 14551 187014 10656 2779 6271 8280 4393 2447 11477 182621 6024 4632 3751 4342 3759 1665 7726 7093 181690 3695 4585 931 2967 6890 3732 1929 3158 4617 2265 1946 2476
internal_count=345274 74430 49223 270844 27291 60065 37676 16822 21932 26199 13074 210779 8858 12472 10469 6814 9392 7430 6260 25207 1748 7110 13727 22389 15296 23765 16875 6106 4363 14096 6163 9133 14551 187014 10656 2779 6271 8280 4393 2447 11477 182621 6024 4632 3751 4342 3759 1665 7726 7093 181690 3695 4585 931 2967 6890 3732 1929 3158 4617 2265 1946 2476
is_linear=0
shrinkage=0.01


Tree=11
num_leaves=64
num_cat=0
split_feature=9 1 109 30 29 1 49 9 43 9 29 103 109 49 56 49 22 9 9 26 30 127 97 30 103 127 51 1 43 30 30 49 22 1 85 109 49 49 60 1 9 30 29 9 105 9 109 57 9 72 97 9 32 29 29 97 18 9 60 43 49 85 9
split_gain=28035 10805.5 3185.07 3151.1 1055.99 865.398 549.839 547.456 376.896 317.809 275.621 255.491 219.446 198.812 195.818 192.335 141.067 94.8095 90.3086 73.8647 71.2741 66.7508 66.6182 55.0295 53.2467 46.824 45.4249 42.4807 40.0278 27.6073 25.6722 22.3039 19.1679 16.3777 12.702 12.6593 8.95516 8.87027 8.31047 7.87552 7.51876 7.35111 3.12649 2.89795 2.70883 2.54311 2.51644 2.51346 2.40498 1.88685 1.59181 1.48033 1.33242 1.28072 1.27267 1.21526 1.03582 0.902352 0.877737 0.772474 0.761886 0.462319 0.303002
threshold=355.43374633789068 1560.0000000000002 636.44641113281261 -0.3826832622289657 -0.4124861061573028 1560.0000000000002 611.23071289062511 186.08694458007815 95567.394531250015 533.48590087890636 -0.25881917774677271 95426.078125000015 786.51040649414074 720.41290283203136 78.676586151123061 597.73074340820324 1.5000000000000002 85.234298706054702 673.85293579101574 -0.37940952181816096 -0.8660253882408141 95401.605468750015 0.22475841641426089 -0.25881907343864435 98171.164062500015 95401.605468750015 5.5773000717163095 1560.0000000000002 95689.351562500015 -0.19509041309356687 -0.75183981657028187 880.76950073242199 1.5000000000000002 1560.0000000000002 -1.2266095876693723 475.22966003417974 706.81204223632824 716.63720703125011 294.54466247558599 1560.0000000000002 792.54235839843761 -0.65934577584266651 -0.032701454064572026 479.12834167480474 0.021287999115884308 110.92340087890626 65.552898406982436 0.98133811354637157 169.3724060058594 1.4921630024909975 -0.1496455520391464 465.10494995117193 62.817399978637702 0.98611509799957286 -0.77259662747383107 -0.073993038386106477 22.500000000000004 845.57986450195324 297.82611083984381 97006.824218750015 859.10256958007824 -1.2076860666275022 102.13714981079103
decision_type=2 2 2 2 2 2 2 2 2 2 2 2 2 2 2 2 2 2 2 2 2 2 2 2 2 2 2 2 2 2 2 2 2 2 2 2 2 2 2 2 2 2 2 2 2 2 2 2 2 2 2 2 2 2 2 2 2 2 2 2 2 2 2
left_child=3 2 4 5 9 7 22 17 14 21 28 -8 16 29 20 -12 -10 30 32 -19 -4 -2 -6 27 -14 -11 -16 31 -9 38 -1 -15 36 34 -25 51 44 41 46 -40 42 47 55 -38 -3 53 -5 -7 62 56 -44 -34 -37 -31 -50 -20 -42 -51 -43 -47 -29 -35 -39
right_child=1 18 8 13 6 37 11 10 12 25 15 -13 24 23 26 -17 -18 19 40 -21 -22 -23 -24 33 -26 -27 -28 60 -30 45 -32 -33 35 61 -36 52 43 48 39 -41 49 58 50 -45 -46 59 -48 -49 54 57 -52 -53 -54 -55 -56 -57 -58 -59 -60 -61 -62 -63 -64
leaf_value=0.00066250884286164725 0.0045699590838040758 0.00040150136845579839 0.017046302949509949 -0.0019322970213749892 0.0055226576970117984 -0.0010234811043698965 0.011675335574731943 0.0026740575797929156 0.011530890458159112 0.0077700513114065638 0.0023615584815344366 0.0081699638981203165 0.011378184801897014 5.8198638566445321e-06 0.011541137650429797 0.004920980382659668 0.0089179753755914866 -0.00035420533118585659 0.00050551989807218884 0.0013153946173420691 0.012711451598586356 0.0023197031445964088 0.002700409138227527 -0.0016194303561982391 0.013462543831606657 0.0054936337652831532 0.0047787510151858746 -0.0016404439664770825 0.00068720151604350645 -0.0021820710503139018 -0.0007731144512033532 0.0018163572200934322 -0.0011048930849329947 -0.0020480165101470467 -0.00080255851272569955 -8.8715483807303837e-05 1.6693486729148767e-05 -0.0015434290551371176 -0.00085863464482222734 -0.0018899189103999678 0.00041517736372547831 -0.0017405329120304797 0.0010739290136604833 0.0005788435502763965 -0.00046707016214389503 -0.001501564470637159 -0.0015385682276782334 -0.0013779278370873208 -0.0013876488864760347 0.0011448878411608281 0.00021324130042007158 -0.00074096892017530168 -0.00043748392608449149 -0.0020763174325591259 -0.00056362557437147811 -0.00021258948118407011 0.0012292724998043305 0.0014846516071340208 -0.0013492875605474206 -0.0019456089187568479 -0.0011589262207381663 -0.0018047466068278077 -0.0011098383890380628
leaf_weight=1516 1692 415 1924 6734 3783 3693 2533 1241 3444 1167 6190 11750 2176 2263 768 5595 5228 3693 2489 9364 484 6019 1079 3066 2926 4134 116 978 5571 169386 6947 974 3102 1505 5070 2604 1433 319 2027 1179 394 4886 1700 2584 2557 611 2233 4572 211 1446 253 1825 1914 13328 2031 256 272 1963 714 1492 561 2418 476
leaf_count=1516 1692 415 1924 6734 3783 3693 2533 1241 3444 1167 6190 11750 2176 2263 768 5595 5228 3693 2489 9364 484 6019 1079 3066 2926 4134 116 978 5571 169386 6947 974 3102 1505 5070 2604 1433 319 2027 1179 394 4886 1700 2584 2557 611 2233 4572 211 1446 253 1825 1914 13328 2031 256 272 1963 714 1492 561 2418 476
internal_value=0 0.00543568 0.00816229 -0.00149376 0.00630893 0.000594986 0.00780302 0.00139466 0.0116542 0.00411034 0.0026513 0.00879199 0.0109265 -0.00205075 0.0146971 0.00357692 0.00995626 0.000308595 0.000111176 0.00084302 0.0161775 0.00281389 0.00489695 -0.00100745 0.0125747 0.00599557 0.0106579 -9.85078e-05 0.00104956 -0.0021399 -0.000515697 0.000551339 -0.000326061 -0.00136726 -0.00111069 -0.000619855 7.06991e-05 -0.00130292 -0.00167779 -0.00123865 0.000930439 -0.00141035 0.000656816 0.00037882 -0.000345085 -0.00217033 -0.00183453 -0.00121984 -0.000811752 0.00124533 0.000963506 -0.000970552 -0.000236929 -0.00217437 -0.000642244 0.000437804 0.000751066 0.00134123 -0.00169108 -0.00181778 -0.00146648 -0.00189873 -0.00128685
internal_weight=0 74430 49223 270844 32157 57019 19145 40117 17066 13012 18597 14283 13774 213825 3292 11785 8672 21520 25207 13057 2408 7711 4862 16835 5102 5301 884 4776 6812 196990 8463 3237 16434 12059 8136 9445 6989 16902 12173 3206 8773 13865 4698 4017 2972 184817 8967 8265 3037 4075 1953 4927 4518 182714 2242 2745 666 3409 5600 2103 1539 3923 795
internal_count=345274 74430 49223 270844 32157 57019 19145 40117 17066 13012 18597 14283 13774 213825 3292 11785 8672 21520 25207 13057 2408 7711 4862 16835 5102 5301 884 4776 6812 196990 8463 3237 16434 12059 8136 9445 6989 16902 12173 3206 8773 13865 4698 4017 2972 184817 8967 8265 3037 4075 1953 4927 4518 182714 2242 2745 666 3409 5600 2103 1539 3923 795
is_linear=0
shrinkage=0.01


Tree=12
num_leaves=64
num_cat=0
split_feature=133 1 9 30 21 1 61 121 9 29 21 9 49 55 43 32 31 61 55 9 56 9 29 133 28 21 43 55 55 9 30 109 21 43 61 30 9 30 9 61 21 21 21 0 1 49 36 61 61 56 9 0 21 9 9 0 29 29 9 61 128 28 9
split_gain=27478.8 10610.2 3406.89 2900.55 973.337 786.942 520.104 497.518 465.071 259.876 225.664 204.968 188.094 180.67 159.322 152.097 150.391 125.673 103.726 93.8362 85.1832 84.487 73.1371 72.394 60.4008 53.6024 48.8139 37.7953 36.3818 28.2 21.355 20.8628 19.4415 13.2248 12.691 10.2804 9.80782 8.9829 8.92426 8.30875 6.70893 6.53729 6.50258 6.28944 3.89631 3.3235 3.15731 3.04903 2.85155 2.60079 2.57312 2.56262 1.51555 1.3474 1.31367 1.31337 1.26695 1.23705 0.998795 0.664603 0.626078 0.311658 0.225696
threshold=344.97622680664068 1560.0000000000002 628.85418701171886 -0.3826832622289657 13.625000000000002 1560.0000000000002 337.20379638671881 216.22539520263675 786.82647705078136 -0.16280824691057202 13.125000000000002 479.12834167480474 720.41290283203136 95169.847656250015 95567.394531250015 68.317001342773452 95359.406250000015 229.20487213134768 95639.558593750015 642.00775146484386 78.676586151123061 81.008350372314467 -0.4124861061573028 848.77297973632824 0.11678428947925569 15.375000000000002 95965.128906250015 100038.11328125001 95596.695312500015 108.84994888305665 -0.75183981657028187 51.610399246215827 11.875000000000002 100181.36328125001 428.92523193359381 -0.13052606582641599 496.83584594726568 -0.19509041309356687 151.05369567871097 424.33540344238287 14.125000000000002 16.375000000000004 14.125000000000002 5.5000000000000009 1560.0000000000002 874.50527954101574 288.20140075683599 337.20379638671881 306.45866394042974 59.399070739746101 479.12834167480474 5.5000000000000009 15.125000000000002 76.942249298095717 573.72561645507824 5.5000000000000009 0.98611509799957286 -0.58216583728790272 768.64068603515636 340.49342346191412 23.62611293792725 0.11287339404225351 29.595049858093265
decision_type=2 2 2 2 2 2 2 2 2 2 2 2 2 2 2 2 2 2 2 2 2 2 2 2 2 2 2 2 2 2 2 2 2 2 2 2 2 2 2 2 2 2 2 2 2 2 2 2 2 2 2 2 2 2 2 2 2 2 2 2 2 2 2
left_child=3 2 4 5 6 7 17 21 9 18 15 25 31 20 -8 -9 -11 -2 -4 32 -10 30 -23 -15 33 -6 -13 29 -12 -26 -1 37 39 35 49 -14 52 46 53 48 45 51 47 -29 -43 -36 -5 -40 -3 60 -41 -33 -34 62 -38 -35 -39 -55 -42 -51 -21 -44 -7
right_child=1 19 8 12 11 38 14 10 13 16 28 26 24 23 -16 -17 -18 -19 -20 34 -22 22 -24 -25 27 -27 -28 43 -30 -31 -32 41 36 55 40 -37 54 56 42 50 58 44 61 -45 -46 -47 -48 -49 -50 59 -52 -53 -54 57 -56 -57 -58 -59 -60 -61 -62 -63 -64
leaf_value=0.00059942988815695267 0.0028529419923109039 -0.00073117791000767995 0.010639260201109986 -0.0019575090222453502 0.0033249677815931121 -0.0019244924174334056 0.011359416194073071 0.0046192207438278659 0.017030724643257646 0.013914598230109237 0.0026170006429302125 0.0064898660593345212 -0.000707218123199195 0.011020928523154189 0.0081039155745715984 0.0023087664694108607 0.010296083527761919 0.0059326382582576762 0.0075548286819405695 0.00086013955469014982 0.011002392909848523 -0.00034413689897838494 0.0012531149477996372 0.013019344967933688 5.6622997669713893e-05 0.0013949726613703551 0.0043026785991470903 -2.0347727403501216e-05 0.0006864765074133791 0.0022783548089185964 -0.00079164540610251999 0.00028215855106724318 -0.00085544487629595617 -0.0014733799707982314 0.00090183146755839409 -0.0014771797103762798 -0.00056412235471973201 -0.0021607516565511358 -0.0011069530561225783 6.3338788293873397e-05 0.0002691422699133079 -0.0014813397791055146 -0.0016506871839595178 -0.0014353995584860664 -0.0020143263337491454 0.0013659935204344536 -0.0015375953974353907 -0.00067064609568273485 -0.00013306149461191636 -0.00056109637657593794 0.00068114080649226208 -0.0013329750686681744 -0.0012376192706210311 -0.0017889923447331063 -0.00021621014246740511 -0.0018887198970834412 -0.0020555547365333281 -0.001360765459055213 0.00083103554327158911 2.2042684733823261e-05 0.00034618387731788361 -0.0014047121039994228 -0.0016932503287551482
leaf_weight=1324 1748 1116 1416 5212 2408 802 1870 5250 1215 1473 1195 1350 3331 3579 7804 6245 5341 5525 4844 471 296 4191 9060 3768 1985 3592 4270 402 5361 803 6581 250 1963 1037 2844 3652 2210 168726 4756 1203 1142 4355 1469 1485 2058 3484 2837 2464 2830 229 1556 160 2347 936 2184 3668 13328 2938 448 1289 516 1100 1982
leaf_count=1324 1748 1116 1416 5212 2408 802 1870 5250 1215 1473 1195 1350 3331 3579 7804 6245 5341 5525 4844 471 296 4191 9060 3768 1985 3592 4270 402 5361 803 6581 250 1963 1037 2844 3652 2210 168726 4756 1203 1142 4355 1469 1485 2058 3484 2837 2464 2830 229 1556 160 2347 936 2184 3668 13328 2938 448 1289 516 1100 1982
internal_value=0 0.00529537 0.0079619 -0.00150291 0.0056858 0.000530097 0.00721438 0.00130029 0.0109264 0.00972649 0.0025198 0.00345617 -0.0020334 0.0126967 0.00873375 0.00336426 0.0110792 0.00519288 0.00825332 8.2464e-05 0.0158535 0.000259638 0.000747792 0.0120466 -0.00100294 0.00217 0.00482874 -4.18302e-05 0.00103877 0.00069742 -0.000558389 -0.00211901 -0.000413143 -0.00138718 0.000815335 -0.00111023 -0.000724895 -0.00213854 -0.00130578 -8.13429e-06 0.00101166 -0.00157443 -0.00111291 -0.00113505 -0.00165278 0.00115775 -0.00180981 -0.000958364 -0.000302769 0.00019394 0.000412523 -0.000343777 -0.00106409 -0.00158898 -0.000391677 -0.0017977 -0.00215306 -0.00146488 0.000428846 -6.47038e-05 0.000593658 -0.00154632 -0.00176078
internal_weight=0 76331 50499 268943 28567 55654 16947 39207 21932 13074 18051 11620 213289 8858 9674 11495 6814 7273 6260 25832 1511 21156 13251 7347 16363 6000 5620 4675 6556 2788 7905 196926 15409 11688 10423 6983 8704 190103 16447 6705 7918 6823 9789 1887 6413 6328 8049 7220 3946 2505 2759 410 4310 6658 4394 4705 182054 3874 1590 1518 987 2569 2784
internal_count=345274 76331 50499 268943 28567 55654 16947 39207 21932 13074 18051 11620 213289 8858 9674 11495 6814 7273 6260 25832 1511 21156 13251 7347 16363 6000 5620 4675 6556 2788 7905 196926 15409 11688 10423 6983 8704 190103 16447 6705 7918 6823 9789 1887 6413 6328 8049 7220 3946 2505 2759 410 4310 6658 4394 4705 182054 3874 1590 1518 987 2569 2784
is_linear=0
shrinkage=0.01


Tree=13
num_leaves=64
num_cat=0
split_feature=9 0 30 1 9 1 29 9 115 9 61 29 29 61 56 61 49 31 49 29 9 115 9 61 9 29 72 26 9 25 29 115 0 31 69 51 30 18 1 109 30 22 109 61 73 9 30 61 29 22 1 25 115 49 36 0 116 9 29 29 30 91 30
split_gain=26940.2 7600.05 3086.99 2883.09 2658.63 850.38 826.16 542.664 500.162 470.95 439.282 304.73 272.605 261.096 251.403 206.515 192.712 172.276 149.873 134.222 131.408 96.4418 90.8419 87.0254 85.385 84.0744 81.523 70.8562 63.5212 57.3955 48.5894 37.6341 32.724 31.6599 29.272 26.2824 24.6886 22.3819 21.738 21.4262 18.4837 18.1949 11.8246 11.63 10.2018 9.8418 8.8031 8.10006 7.22231 6.29383 5.4606 4.54004 3.86098 3.81449 3.09375 2.51185 1.69295 1.31999 1.24087 1.21187 0.585908 0.556656 0.181595
threshold=359.37721252441412 5.5000000000000009 -0.3826832622289657 1560.0000000000002 619.37078857421886 1560.0000000000002 -0.4124861061573028 186.08694458007815 96324.039062500015 693.17361450195324 326.88577270507818 -0.4124861061573028 -0.25881917774677271 428.92523193359381 78.676586151123061 224.17226409912112 720.41290283203136 95306.941406250015 888.54904174804699 -0.4711442738771438 501.19255065917974 95776.546875000015 85.234298706054702 346.04989624023443 673.85293579101574 -0.52778503298759449 2.4449832439422612 -0.37940952181816096 738.37063598632824 0.17112182825803759 -0.77259662747383107 95591.171875000015 1.5000000000000002 99874.031250000015 0.35957013070583349 5.446700096130372 -0.75183981657028187 4.5000000000000009 1560.0000000000002 51.610399246215827 -0.13052606582641599 1.5000000000000002 475.22966003417974 472.25155639648443 228.06377410888675 151.05369567871097 -0.19509041309356687 428.92523193359381 -0.52778503298759449 1.5000000000000002 1560.0000000000002 0.14012221619486812 96137.382812500015 701.88061523437511 288.20140075683599 5.5000000000000009 37.569250106811531 76.942249298095717 0.98611509799957286 -0.58216583728790272 -0.13052606582641599 -0.17341990023851392 -0.65934577584266651
decision_type=2 2 2 2 2 2 2 2 2 2 2 2 2 2 2 2 2 2 2 2 2 2 2 2 2 2 2 2 2 2 2 2 2 2 2 2 2 2 2 2 2 2 2 2 2 2 2 2 2 2 2 2 2 2 2 2 2 2 2 2 2 2 2
left_child=2 4 5 9 6 7 20 22 14 23 21 28 31 -13 19 -14 39 -12 35 -6 30 -8 36 37 41 -25 -16 -24 -10 38 -2 -9 -22 43 -20 -11 -1 -3 40 46 -18 44 -43 -31 -5 57 54 56 61 55 -35 -49 -51 -50 -4 -41 -26 62 -48 -59 -40 -47 -7
right_child=1 3 16 24 8 45 10 12 11 18 17 13 15 -15 26 -17 29 -19 34 -21 32 -23 27 25 47 -27 -28 -29 -30 33 -32 -33 -34 50 -36 -37 -38 -39 60 49 -42 42 -44 -45 -46 48 58 51 53 52 -52 -53 -54 -55 -56 -57 -58 59 -60 -61 -62 -63 -64
leaf_value=0.00064938737598155575 0.0016184586553576307 0.0060317072716985507 -0.0019379350597900516 -0.0005396878130536079 0.011875326027713963 -0.0015480801276281913 0.0080230968982856962 0.0025565989312347731 0.0066444620991783637 0.0083447824940119687 0.011982492225288424 0.0085341375495820888 0.0019538958609441894 0.011937576795020333 0.0053314272787836911 0.0046212370542850593 -0.00058419042013224611 0.0082421698761052757 0.013162317736453984 0.017019024743313342 0.0029666990198693849 0.0045700591684752602 -0.00034861319018628838 0.0043055693646220309 0.00089872658111886015 0.0074921986309937454 0.011671438320292942 0.0012866240082953003 0.0092704744622630116 5.6213265724911034e-05 0.0035673034553170579 0.00068704557264974637 0.0054007203068819135 0.00028621535145795148 0.0086130980429951175 0.0029638114608341415 -0.00075845452047761748 0.0029705055331387697 -0.0017242796380730525 0.00027934034838203692 -0.0014798537560248605 -0.0009452084582209614 -0.00023211782732782834 0.0016804123170594994 0.00031703894070345297 -0.0012538659507605324 -0.0021391441636331061 0.0011917556821522605 -0.0010694690295567409 -0.0011180773367425337 -0.0013306981367290408 0.00058844040295179874 -0.0017439485834720376 -0.00058248080241399974 -0.0015222210698481405 -0.0013196702648264472 9.4500889228137758e-05 -0.0017711081509071069 -0.0020349996482084084 -0.0013471591928843304 -0.0019702980170537591 -0.0016107875453493826 -0.0017904374134321108
leaf_weight=1516 2873 287 5212 1929 676 553 1004 1333 2276 1192 1544 3142 4910 8061 267 7114 5134 6184 1265 2116 682 4221 3693 1399 333 2049 872 9364 1567 716 2316 5630 3031 262 165 100 6947 1484 2420 250 4197 4812 4518 1158 4966 644 168726 5555 5407 1242 992 1629 5241 2323 2837 160 1256 936 13328 2938 2037 2052 2231
leaf_count=1516 2873 287 5212 1929 676 553 1004 1333 2276 1192 1544 3142 4910 8061 267 7114 5134 6184 1265 2116 682 4221 3693 1399 333 2049 872 9364 1567 716 2316 5630 3031 262 165 100 6947 1484 2420 250 4197 4812 4518 1158 4966 644 168726 5555 5407 1242 992 1629 5241 2323 2837 160 1256 936 13328 2938 2037 2052 2231
internal_value=0 0.00535875 -0.00145603 0.00178501 0.00824158 0.000598983 0.0058635 0.00138815 0.0109801 0.00703403 0.00747545 0.0101493 0.00262039 0.0109835 0.0141584 0.00353227 -0.00200931 0.00899015 0.0104069 0.0157758 0.00351759 0.00523438 0.000300844 0.005274 0.000117426 0.00620031 0.0101888 0.000823968 0.00771639 -0.000984781 0.00248883 0.00104534 0.00495446 0.000237608 0.0126407 0.00793063 -0.000506014 0.00346866 -0.00126224 -0.00209727 -0.000987301 -0.000312235 -0.000600131 0.00106103 7.70511e-05 -0.00127205 -0.00211716 0.000912265 -0.00107957 -0.00154834 -0.000991292 0.00105526 -0.00162441 -0.000923408 -0.00179172 -0.000340298 0.000264435 -0.0015731 -0.00213153 -0.00145024 -0.00183729 -0.00152642 -0.00174319
internal_weight=0 73771 271503 32939 40832 57591 21855 40507 18977 7941 12953 15046 18987 11203 3931 12024 213912 7728 2722 2792 8902 5225 21520 5219 24998 3448 1139 13057 3843 16916 5189 6963 3713 3128 1430 1292 8463 1771 13788 196996 9331 16225 9330 1874 6895 17084 190103 8773 10426 6893 1254 7184 6483 7730 8049 410 1589 6658 182054 3874 4457 2696 2784
internal_count=345274 73771 271503 32939 40832 57591 21855 40507 18977 7941 12953 15046 18987 11203 3931 12024 213912 7728 2722 2792 8902 5225 21520 5219 24998 3448 1139 13057 3843 16916 5189 6963 3713 3128 1430 1292 8463 1771 13788 196996 9331 16225 9330 1874 6895 17084 190103 8773 10426 6893 1254 7184 6483 7730 8049 410 1589 6658 182054 3874 4457 2696 2784
is_linear=0
shrinkage=0.01


Tree=14
num_leaves=64
num_cat=0
split_feature=121 1 9 30 21 1 61 121 9 21 21 43 61 31 49 109 31 3 31 9 9 104 21 127 25 21 43 2 30 3 9 21 1 85 61 30 9 9 48 31 21 49 21 9 49 33 56 105 30 60 109 30 9 9 21 121 33 9 32 30 91 9 121
split_gain=26405.4 10266.4 3229.39 2788.52 1012.1 758.534 491.124 465.201 449.027 250.952 198.276 190.586 183.96 180.163 177.458 158.565 144.997 96.4041 95.3741 90.0649 81.087 79.4417 75.799 74.4728 57.8267 48.3987 37.7972 36.7747 25.0943 24.2249 23.5603 18.8964 18.3989 12.5589 12.1806 10.5027 9.82024 8.02981 7.61384 7.30628 6.45216 6.27347 5.62394 3.79004 3.25132 2.73394 2.52673 2.15793 2.14983 2.66066 1.8648 1.78655 1.37266 0.982331 1.07504 0.862049 0.845009 0.670024 0.633178 0.576136 0.401034 0.12334 0.0823932
threshold=404.05435180664068 1560.0000000000002 628.85418701171886 -0.3826832622289657 14.125000000000002 1560.0000000000002 314.34217834472662 216.22539520263675 786.82647705078136 12.625000000000002 14.375000000000002 95567.394531250015 218.0195007324219 95101.796875000015 720.41290283203136 426.64549255371099 95359.406250000015 95482.292968750015 95306.941406250015 642.00775146484386 63.005998611450202 61.974498748779304 14.375000000000002 98150.214843750015 0.17112182825803759 16.375000000000004 95965.128906250015 1250.0000000000002 -0.19509041309356687 95529.222656250015 108.84994888305665 11.875000000000002 1560.0000000000002 -1.2266095876693723 428.92523193359381 -0.65934577584266651 492.66059875488287 136.12304687500003 295.27494812011724 100101.37500000001 14.125000000000002 706.81204223632824 14.125000000000002 460.65756225585943 874.50527954101574 0.82049000263214122 59.399070739746101 0.021287999115884308 0.065403338521718993 294.54466247558599 62.075799942016609 -0.65934577584266651 573.72561645507824 63.005998611450202 14.375000000000002 833.20104980468761 0.061493501067161567 63.005998611450202 14.24840021133423 -0.13052606582641599 -0.17341990023851392 131.27920532226565 43.902750015258796
decision_type=2 2 2 2 2 2 2 2 2 2 2 2 2 2 2 2 2 2 2 2 2 2 2 2 2 2 2 2 2 2 2 2 2 2 2 2 2 2 2 2 2 2 2 2 2 2 2 2 2 2 2 2 2 2 2 2 2 2 2 2 2 2 2
left_child=3 2 4 5 6 7 18 20 9 16 12 -8 -9 21 28 25 -4 -11 -2 31 35 -10 -22 -15 32 -6 -17 30 38 -12 -26 41 33 -16 46 -1 51 53 50 -40 44 47 45 -43 -36 -39 58 -3 49 -30 -5 -33 -38 62 -55 -42 -48 -29 -21 -34 -44 -50 -7
right_child=1 19 8 14 15 37 11 10 13 17 29 -13 -14 23 24 26 -18 -19 -20 34 22 -23 -24 -25 27 -27 -28 57 48 -31 -32 36 59 -35 40 -37 52 42 39 -41 55 43 60 -45 -46 -47 56 -49 61 -51 -52 -53 -54 54 -56 -57 -58 -59 -60 -61 -62 -63 -64
